0.000000 0.000000 0.000000 0.000000 0.000000 0.000000 0.000000 0.000000 0.000000 0.000000 0.000000 0.000000 0.000000 0.000000 0.000000 0.000000 0.000000 0.000000 0.000000 0.000000 0.000000 0.000000 0.000000 0.000000 0.000000 0.000000 0.000000 0.000000 0.000000 0.000000 0.000000 0.000000 0.000000 0.000000 0.000000 0.000000 0.000000 0.000000 0.000000 0.000000 0.000000 0.000000 0.000000 0.000000 0.000000 0.000000 0.000000 0.000000 0.000000 0.000000 0.000000 0.000000 0.000000 0.000000 0.000000 0.000000 0.000000 0.000000 0.000000 0.000000 0.000000 0.000000 0.000000 0.000000 0.000000 0.000000 0.000000 0.000000 0.000000 0.000000 0.000000 0.000000 0.000000 0.000000 0.000000 0.000000 0.000000 0.000000 0.000000 0.000000 0.000000 0.000000 0.000000 0.000000 0.000000 0.000000 0.000000 0.000000 0.000000 0.000000 0.000000 0.000000 0.000000 0.000000 0.000000 0.000000 0.000000 0.000000 0.000000 0.000000 0.000000 0.000000 0.000000 0.000000 0.000000 0.000000 0.000000 0.000000 0.000000 0.000000 0.000000 0.000000 0.000000 0.000000 0.000000 0.000000 0.000000 0.000000 0.000000 0.000000 0.000000 0.000000 0.000000 0.000000 0.000000 0.000000 0.000000 0.000000 0.000000 0.000000 0.000000 0.000000 0.000000 0.000000 0.000000 0.000000 0.000000 0.000000 0.000000 0.000000 0.000000 0.000000 0.000000 0.000000 0.000000 0.000000 0.000000 0.000000 0.000000 0.000000 0.000000 0.000000 0.000000 0.000000 0.000000 0.000000 0.000000 0.000000 0.000000 0.000000 0.000000 0.000000 0.000000 0.000000 0.000000 0.000000 0.000000 0.000000 0.000000 0.000000 0.000000 0.000000 0.000000 0.000000 0.000000 0.000000 0.000000 0.000000 0.000000 0.000000 0.000000 0.000000 0.000000 0.000000 0.000000 0.000000 0.000000 0.000000 0.000000 0.000000 0.000000 0.000000 0.000000 0.000000 0.000000 0.000000 0.000000 0.000000 0.000000 0.000000 0.000000 0.000000 0.000000 0.000000 0.000000 0.000000 0.000000 0.000000 0.000000 0.000000 0.000000 0.000000 0.000000 0.000000 0.000000 0.000000 0.000000 0.000000 0.000000 0.000000 0.000000 0.000000 0.000000 0.000000 0.000000 0.000000 0.000000 0.000000 0.000000 0.000000 0.000000 0.000000 0.000000 0.000000 0.000000 0.000000 0.000000 0.000000 0.000000 0.000000 0.000000 0.000000 0.000000 0.000000 0.000000 0.000000 0.000000 0.000000 0.000000 0.000000 0.000000 0.000000 0.000000 0.000000 0.000000 0.000000 0.000000 0.000000 0.000000 0.000000 0.000000 0.000000 0.000000 0.000000 0.000000 0.000000 0.000000 0.000000 0.000000 0.000000 0.000000 0.000000 0.000000 0.000000 0.000000 0.000000 0.000000 0.000000 0.000000 0.000000 0.000000 0.000000 0.000000 0.000000 0.000000 0.000000 0.000000 0.000000 0.000000 0.000000 0.000000 0.000000 0.000000 0.000000 0.000000 0.000000 0.000000 0.000000 0.000000 0.000000 0.000000 0.000000 0.000000 0.000000 0.000000 0.000000 0.000000 0.000000 0.000000 0.000000 0.000000 0.000000 0.000000 0.000000 0.000000 0.000000 0.000000 0.000000 0.000000 0.000000 0.000000 0.000000 0.000000 0.000000 0.000000 0.000000 0.000000 0.000000 0.000000 0.000000 0.000000 0.000000 0.000000 0.000000 0.000000 0.000000 0.000000 0.000000 0.000000 0.000000 0.000000 0.000000 0.000000 0.000000 0.000000 0.000000 0.000000 0.000000 0.000000 0.000000 0.000000 0.000000 0.000000 0.000000 0.000000 0.000000 0.000000 0.000000 0.000000 0.000000 0.000000 0.000000 0.000000 0.000000 0.000000 0.000000 0.000000 0.000000 0.000000 0.000000 0.000000 0.000000 0.000000 0.000000 0.000000 0.000000 0.000000 0.000000 0.000000 0.000000 0.000000 0.000000 0.000000 0.000000 0.000000 0.000000 0.000000 0.000000 0.000000 0.000000 0.000000 0.000000 0.000000 0.000000 0.000000 0.000000 0.000000 0.000000 0.000000 0.000000 0.000000 0.000000 0.000000 0.000000 0.000000 0.000000 0.000000 0.000000 0.000000 0.000000 0.000000 0.000000 0.000000 0.000000 0.000000 0.000000 0.000000 0.000000 0.000000 0.000000 0.000000 0.000000 0.000000 0.000000 0.000000 0.000000 0.000000 0.000000 0.000000 0.000000 0.000000 0.000000 0.000000 0.000000 0.000000 0.000000 0.000000 0.000000 0.000000 0.000000 0.000000 0.000000 0.000000 0.000000 0.000000 0.000000 0.000000 0.000000 0.000000 0.000000 0.000000 0.000000 0.000000 0.000000 0.000000 0.000000 0.000000 0.000000 0.000000 0.000000 0.000000 0.000000 0.000000 0.000000 0.000000 0.000000 0.000000 0.000000 0.000000 0.000000 0.000000 0.000000 0.000000 0.000000 0.000000 0.000000 0.000000 0.000000 0.000000 0.000000 0.000000 0.000000 0.000000 0.000000 0.000000 0.000000 0.000000 0.000000 0.000000 0.000000 0.000000 0.000000 0.000000 0.000000 0.000000 0.000000 0.000000 0.000000 0.000000 0.000000 0.000000 0.000000 0.000000 0.000000 0.000000 0.000000 0.000000 0.000000 0.000000 0.000000 0.000000 0.000000 0.000000 0.000000 0.000000 0.000000 0.000000 0.000000 0.000000 0.000000 0.000000 0.000000 0.000000 0.000000 0.000000 0.000000 0.000000 0.000000 0.000000 0.000000 0.000000 0.000000 0.000000 0.000000 0.000000 0.000000 0.000000 0.000000 0.000000 0.000000 0.000000 0.000000 0.000000 0.000000 0.000000 0.000000 0.000000 0.000000 0.000000 0.000000 0.000000 0.000000 0.000000 0.000000 0.000000 0.000000 0.000000 0.000000 0.000000 0.000000 0.000000 0.000000 0.000000 0.000000 0.000000 0.000000 0.000000 0.000000 0.000000 0.000000 0.000000 0.000000 0.000000 0.000000 0.000000 0.000000 0.000000 0.000000 0.000000 0.000000 0.000000 0.000000 0.000000 0.000000 0.000000 0.000000 0.000000 0.000000 0.000000 0.000000 0.000000 0.000000 0.000000 0.000000 0.000000 0.000000 0.000000 0.000000 0.000000 0.000000 0.000000 0.000000 0.000000 0.000000 0.000000 0.000000 0.000000 0.000000 0.000000 0.000000 0.000000 0.000000 0.000000 0.000000 0.000000 0.000000 0.000000 0.000000 0.000000 0.000000 0.000000 0.000000 0.000000 0.000000 0.000000 0.000000 0.000000 0.000000 0.000000 0.000000 0.000000 0.000000 0.000000 0.000000 0.000000 0.000000 0.000000 0.000000 0.000000 0.000000 0.000000 0.000000 0.000000 0.000000 0.000000 0.000000 0.000000 0.000000 0.000000 0.000000 0.000000 0.000000 0.000000 0.000000 0.000000 0.000000 0.000000 0.000000 0.000000 0.000000 0.000000 0.000000 0.000000 0.000000 0.000000 0.000000 0.000000 0.000000 0.000000 0.000000 0.000000 0.000000 0.000000 0.000000 0.000000 0.000000 0.000000 0.000000 0.000000 0.000000 0.000000 0.000000 0.000000 0.000000 0.000000 0.000000 0.000000 0.000000 0.000000 0.000000 0.000000 0.000000 0.000000 0.000000 0.000000 0.000000 0.000000 0.000000 0.000000 0.000000 0.000000 0.000000 0.000000 0.000000 0.000000 0.000000 0.000000 0.000000 0.000000 0.000000 0.000000 0.000000 0.000000 0.000000 0.000000 0.000000 0.000000 0.000000 0.000000 0.000000 0.000000 0.000000 0.000000 0.000000 0.000000 0.000000 0.000000 0.000000 0.000000 0.000000 0.000000 0.000000 0.000000 0.000000 0.000000 0.000000 0.000000 0.000000 0.000000 0.000000 0.000000 0.000000 0.000000 0.000000 0.000000 0.000000 0.000000 0.000000 0.000000 0.000000 0.000000 0.000000 0.000000 0.000000 0.000000 0.000000 0.000000 0.000000 0.000000 0.000000 0.000000 0.000000 0.000000 0.000000 0.000000 0.000000 0.000000 0.000000 0.000000 0.000000 0.000000 0.000000 0.000000 0.000000 0.000000 0.000000 0.000000 0.000000 0.000000 0.000000 0.000000 0.000000 0.000000 0.000000 0.000000 
0.000000 0.000000 0.000000 0.000000 0.000000 0.000000 0.000000 0.000000 0.000000 0.000000 0.000000 0.000000 0.000000 0.000000 0.000000 0.000000 0.000000 0.000000 0.000000 0.000000 0.000000 0.000000 0.000000 0.000000 0.000000 0.000000 0.000000 0.000000 0.000000 0.000000 0.000000 0.000000 0.000000 0.000000 0.000000 0.000000 0.000000 0.000000 0.000000 0.000000 0.000000 0.000000 0.000000 0.000000 0.000000 0.000000 0.000000 0.000000 0.000000 0.000000 0.000000 0.000000 0.000000 0.000000 0.000000 0.000000 0.000000 0.000000 0.000000 0.000000 0.000000 0.000000 0.000000 0.000000 0.000000 0.000000 0.000000 0.000000 0.000000 -0.025604 -0.030286 -0.003219 0.000000 0.000000 0.000000 0.000000 0.000000 0.000000 0.000000 0.000000 0.000000 0.000000 0.000000 0.000000 0.000000 0.000000 0.000000 0.000000 0.000000 0.000000 0.000000 0.000000 0.000000 0.000000 0.000000 0.000000 0.000000 -0.078057 -0.079047 -0.029436 -0.029765 -0.036281 -0.012292 0.000000 0.000000 0.000000 0.000000 0.000000 0.000000 0.000000 0.000000 0.000000 0.000000 0.000000 0.000000 0.000000 0.000000 0.000000 0.000000 -0.011429 0.000000 0.000000 0.002969 0.008103 0.031168 -0.003702 -0.044415 -0.049883 0.067226 0.072885 0.024492 -0.185750 -0.193763 -0.123818 -0.082102 -0.027368 0.009411 0.000000 0.000000 0.000000 0.000000 0.000000 0.000000 0.000000 0.000000 0.000000 0.000000 -0.021609 -0.005000 0.001166 0.025328 0.076376 0.130508 0.060025 -0.011032 0.111644 0.187955 0.073049 -0.105627 0.021222 -0.096978 -0.082299 -0.143617 -0.014156 -0.043180 -0.025273 0.000000 0.000000 0.000000 0.000000 0.000000 0.000000 0.000000 0.000000 0.000000 -0.005932 -0.009793 0.009715 0.044544 0.187894 0.146449 0.034186 0.100968 0.183971 0.023974 0.212648 0.351642 0.217537 0.017451 -0.047536 -0.054054 0.163378 0.100312 -0.013646 0.000181 0.000000 0.000000 0.000000 0.000000 0.000000 0.000000 0.000000 -0.003941 -0.010199 -0.011389 0.041212 0.143007 0.283340 0.193496 0.159482 0.134863 -0.015647 -0.001445 0.225263 0.377014 0.398146 0.235618 0.124711 0.009990 0.239217 0.216427 0.126466 0.017381 0.000000 0.000000 0.000000 0.000000 0.000000 0.000000 0.000000 -0.004388 -0.025384 -0.009802 0.098875 0.238543 0.318541 0.213076 0.182534 0.020675 -0.066061 -0.124810 0.143296 0.093350 0.400629 0.275523 0.156393 0.221482 0.310942 0.228679 0.077739 0.032590 0.000000 0.000000 0.000000 0.000000 0.000000 0.000000 0.000000 -0.000935 -0.030840 0.047749 0.162485 0.312404 0.273366 0.273564 0.255503 0.097615 -0.105536 -0.272073 -0.112303 -0.025275 0.481879 0.359902 0.253264 0.380095 0.260433 0.213613 0.048879 0.023175 0.000000 0.000000 0.000000 0.000000 0.000000 0.000000 0.000000 0.000000 -0.010823 0.105838 0.238505 0.317801 0.302027 0.379943 0.284451 0.133164 -0.226456 -0.443476 -0.419415 -0.137544 0.489334 0.431312 0.415964 0.429390 0.353959 0.222130 0.038968 0.012131 0.000000 0.000000 0.000000 0.000000 0.000000 0.000000 0.000000 0.000311 0.073454 0.155183 0.260557 0.364037 0.363084 0.446294 0.366087 0.065161 -0.497058 -0.690931 -0.581341 -0.083460 0.454394 0.608994 0.569150 0.481318 0.498616 0.235980 0.039018 0.000000 0.000000 0.000000 0.000000 0.000000 0.000000 0.000000 0.000000 0.007166 0.089630 0.154083 0.378574 0.416523 0.389289 0.326121 0.365359 -0.104346 -0.669106 -0.978280 -0.499429 -0.032339 0.539920 0.642396 0.596435 0.545310 0.486251 0.239053 0.042172 0.000000 0.000000 0.000000 0.000000 0.000000 0.000000 0.000000 0.000000 0.020949 0.085308 0.271086 0.457841 0.377905 0.380186 0.230572 0.413471 -0.371680 -1.023452 -0.989356 -0.460694 0.074524 0.605557 0.562841 0.447793 0.562294 0.399054 0.229681 0.027123 0.000000 0.000000 0.000000 0.000000 0.000000 0.000000 0.000000 0.000000 0.078749 0.228058 0.397374 0.478769 0.362191 0.320664 0.306209 0.234142 -0.727852 -1.209218 -1.092294 -0.389826 0.391789 0.501939 0.562616 0.493480 0.548031 0.331830 0.202201 0.090003 0.000000 0.000000 0.000000 0.000000 0.000000 0.000000 0.000000 0.000000 0.193099 0.315343 0.349958 0.413945 0.379373 0.434845 0.394499 -0.034583 -0.896083 -1.157386 -0.929605 -0.078589 0.483445 0.363981 0.517610 0.556748 0.503032 0.252130 0.160709 0.134933 0.000000 0.000000 0.000000 0.000000 0.000000 0.000000 0.000000 0.009431 0.268660 0.347583 0.356014 0.527343 0.469794 0.433094 0.159927 -0.328823 -0.737514 -0.920197 -0.521304 0.185810 0.355650 0.372008 0.499511 0.472930 0.372033 0.154521 0.093426 0.055285 -0.021271 0.000000 0.000000 0.000000 0.000000 0.000000 0.000000 0.052138 0.291997 0.309368 0.359615 0.616344 0.447355 0.332834 -0.131909 -0.419917 -0.597808 -0.620178 -0.274190 0.285822 0.440930 0.458172 0.445202 0.372882 0.239702 0.130223 0.089703 0.001324 -0.083632 0.000000 0.000000 0.000000 0.000000 0.000000 0.000000 0.081188 0.256373 0.286628 0.392411 0.590706 0.344526 0.134347 -0.076221 -0.468380 -0.414429 -0.371788 -0.070025 0.323644 0.400965 0.444626 0.406479 0.281005 0.218604 0.132672 0.092368 -0.080889 -0.080515 0.000000 0.000000 0.000000 0.000000 0.000000 0.000000 0.068090 0.229240 0.329706 0.414332 0.458781 0.475538 0.195285 -0.209542 -0.294237 -0.254724 -0.148178 0.063401 0.187010 0.336795 0.399435 0.366716 0.269527 0.181890 0.134089 0.039225 -0.070976 -0.070976 0.000000 0.000000 0.000000 0.000000 0.000000 0.000000 0.080477 0.157772 0.299497 0.270919 0.325971 0.474536 0.151764 -0.248101 -0.131976 -0.070635 0.024800 0.167852 0.144940 0.311381 0.280858 0.264765 0.190650 0.127482 0.066148 -0.023472 -0.070976 -0.046945 0.000000 0.000000 0.000000 0.000000 0.000000 0.000000 0.058444 0.172299 0.146951 0.024024 0.202179 0.423902 0.422758 0.192821 0.084585 0.198831 0.144161 0.066812 0.089785 0.289532 0.065573 0.073722 0.059546 0.016833 0.007565 -0.023472 -0.061754 -0.010060 0.000000 0.000000 0.000000 0.000000 0.000000 0.000000 0.029996 0.053065 0.010979 -0.053533 -0.007930 0.246797 0.320158 0.361590 0.289720 0.278395 0.136069 0.020995 0.155402 0.122977 0.003802 -0.027580 -0.044602 -0.031393 0.000000 -0.003353 -0.005868 0.000000 0.000000 0.000000 0.000000 0.000000 0.000000 0.000000 0.000000 -0.022313 -0.034047 -0.095513 -0.234081 -0.207666 0.094715 0.369681 0.409377 0.303904 0.110694 0.044982 0.042232 0.008627 -0.003847 -0.021058 -0.019823 -0.023306 0.000000 0.000000 0.000000 0.000000 0.000000 0.000000 0.000000 0.000000 0.000000 0.000000 0.000000 -0.003736 -0.002619 -0.045452 -0.101740 -0.062811 0.065265 0.157435 0.246179 0.166801 0.051420 0.011010 0.014602 -0.011038 0.001150 0.000000 0.000000 0.000000 0.000000 0.000000 0.000000 0.000000 0.000000 0.000000 0.000000 0.000000 0.000000 0.000000 0.000000 0.000000 0.000000 0.000000 0.000000 0.000000 0.000000 0.000000 0.000000 0.000000 0.000000 0.000000 0.000000 0.000000 0.000000 0.000000 0.000000 0.000000 0.000000 0.000000 0.000000 0.000000 0.000000 0.000000 0.000000 0.000000 0.000000 0.000000 0.000000 0.000000 0.000000 0.000000 0.000000 0.000000 0.000000 0.000000 0.000000 0.000000 0.000000 0.000000 0.000000 0.000000 0.000000 0.000000 0.000000 0.000000 0.000000 0.000000 0.000000 0.000000 0.000000 0.000000 0.000000 0.000000 0.000000 0.000000 0.000000 0.000000 0.000000 0.000000 0.000000 0.000000 0.000000 0.000000 0.000000 0.000000 0.000000 0.000000 0.000000 0.000000 0.000000 0.000000 0.000000 0.000000 0.000000 0.000000 0.000000 0.000000 0.000000 -1491.353035 
0.000000 0.000000 0.000000 0.000000 0.000000 0.000000 0.000000 0.000000 0.000000 0.000000 0.000000 0.000000 0.000000 0.000000 0.000000 0.000000 0.000000 0.000000 0.000000 0.000000 0.000000 0.000000 0.000000 0.000000 0.000000 0.000000 0.000000 0.000000 0.000000 0.000000 0.000000 0.000000 0.000000 0.000000 0.000000 0.000000 0.000000 0.000000 0.000000 0.000000 0.000000 0.000000 0.000000 0.000000 0.041124 0.112406 0.053462 0.000000 0.000000 0.000000 0.000000 0.000000 0.000000 0.000000 0.000000 0.000000 0.000000 0.000000 0.000000 0.000000 0.000000 0.000000 0.000000 -0.000850 -0.002959 -0.016015 -0.038445 -0.070460 -0.069109 -0.012141 -0.000165 -0.002478 -0.031176 -0.056389 -0.053727 -0.027373 -0.005094 0.000000 0.000000 0.000000 0.000000 0.000000 0.000000 0.000000 0.000000 0.000000 0.000000 0.000000 0.000000 0.000000 0.000000 -0.000361 -0.003621 -0.061451 -0.201873 -0.273495 -0.403937 -0.610397 -0.682193 -0.571589 -0.597509 -0.356790 -0.063816 -0.083941 -0.184864 -0.076790 -0.027461 0.028681 0.000000 0.000000 0.000000 0.000000 0.000000 0.000000 0.000000 0.000000 0.000000 0.000000 0.000000 -0.006672 -0.113372 -0.287510 -0.405357 -0.631580 -0.793608 -1.147393 -0.777508 -0.607010 -0.164849 -0.047624 -0.173103 0.042020 0.255221 0.270502 0.090648 -0.029750 0.001740 0.000000 0.000000 0.000000 0.000000 0.000000 0.000000 0.000000 0.000000 0.000000 -0.000188 -0.100226 -0.186040 -0.461119 -0.516485 -0.483958 -0.794064 -0.822863 -0.587480 -0.531935 0.011115 -0.134844 -0.213963 0.233987 0.336284 0.293157 0.170214 0.017132 0.009803 0.000717 0.000000 0.000000 0.000000 0.000000 0.000000 -0.000759 -0.004048 -0.004659 -0.000217 -0.115865 -0.386160 -0.477158 -0.554787 -0.406219 -0.555753 -0.473854 -0.434833 -0.390068 -0.304561 0.249917 0.161257 0.383552 0.570690 0.559039 0.340082 0.249333 0.243309 0.083754 0.001421 0.000000 0.000000 0.000000 0.000000 -0.013999 -0.021421 -0.086760 -0.144893 -0.283140 -0.303538 -0.295376 -0.412777 -0.301117 -0.421050 -0.220731 0.117104 0.032054 -0.088528 0.319673 0.472433 0.495998 0.355472 0.793897 0.568508 0.529626 0.517851 0.413048 0.111021 0.000000 0.000000 0.000000 0.000000 -0.007674 -0.020746 -0.197059 -0.261010 -0.152940 0.012732 -0.092444 -0.259663 -0.057555 0.165646 0.666272 0.608962 0.231387 0.257622 0.552421 0.485741 0.700944 0.242502 0.531477 0.428116 0.463496 0.241534 0.349131 0.203730 0.000000 0.000000 0.000000 0.000000 0.000000 -0.019237 -0.188648 -0.248929 -0.152952 -0.095165 0.112672 0.291773 -0.032752 0.455364 1.055023 0.629888 0.157576 -0.125170 0.314454 0.187660 0.458827 0.350446 0.473773 0.420740 0.400797 0.251988 0.232191 0.141686 0.000000 0.000000 0.000000 0.000000 0.000000 -0.030176 -0.103246 -0.229895 0.075794 0.220974 0.436002 0.412639 0.311751 0.882876 0.979087 0.568023 -0.144555 0.041494 0.000622 0.402680 0.894912 0.325897 0.660523 0.293809 0.428012 0.328688 0.214980 0.019522 0.000000 0.000000 0.000000 0.000000 0.000000 -0.004170 -0.084317 -0.057709 0.367486 0.636103 0.918242 0.634572 0.779277 1.347863 0.911344 0.459195 -0.164940 -0.219349 -0.363688 0.254137 1.069632 0.330014 0.412143 0.272184 0.689421 0.688449 0.188295 -0.131148 0.000000 0.000000 0.000000 0.000000 0.000000 0.000000 -0.118408 0.271067 0.617819 0.968175 1.253495 0.571359 0.373834 1.261912 0.949829 0.117506 -0.257931 -0.889636 -0.815809 0.083392 0.919364 0.305230 -0.103385 0.565186 0.910819 0.711705 0.267753 -0.023664 0.000000 0.000000 0.000000 0.000000 0.000000 -0.015259 -0.113293 0.366434 0.565687 1.081064 0.958181 0.413736 0.752909 1.019179 0.701650 -0.209644 -1.057116 -1.550559 -1.101744 -0.171614 0.648677 0.189533 -0.060878 0.920282 1.152731 0.730205 0.347057 -0.049112 0.000000 0.000000 0.000000 0.000000 0.000000 -0.045778 -0.017981 0.428502 0.675109 0.891444 1.022844 0.568763 0.923717 0.733576 0.018338 -1.286756 -1.680985 -1.550727 -1.036190 -0.294104 -0.005034 0.061048 0.370944 1.222786 0.959341 0.691761 0.304565 -0.121521 -0.028541 0.000000 0.000000 0.000000 0.000000 -0.071743 -0.013005 0.457525 0.445435 0.600456 0.536598 0.291432 0.821380 0.414084 -0.648800 -2.018580 -1.712682 -1.504826 -1.098037 -0.454100 0.119908 0.431309 0.546536 0.614658 0.795221 0.610090 0.246157 -0.093721 -0.065645 -0.002579 0.000000 0.000000 0.000000 -0.074689 -0.137112 0.505469 0.337961 0.079194 0.191807 0.109496 0.444254 -0.390688 -1.733635 -2.192638 -1.982499 -1.649796 -1.104535 -0.514705 0.558920 0.437866 0.354995 0.510952 0.490931 0.277661 0.037114 -0.353315 -0.126092 -0.004660 0.000000 0.000000 0.000000 -0.133740 -0.073547 0.300068 0.103393 0.058924 0.480569 0.385723 -0.121716 -0.771736 -1.150201 -1.814025 -1.983747 -1.563332 -0.855637 0.130519 0.426501 0.042934 0.206771 -0.056172 -0.238768 -0.245152 -0.279376 -0.438012 -0.142591 -0.003573 0.000000 0.000000 0.000000 -0.142056 -0.178028 -0.506363 -0.306465 0.341596 1.249896 1.160895 0.393801 -0.428735 -1.343177 -1.660652 -1.293644 -1.177037 -0.813143 -0.160928 -0.578179 -0.543126 -0.465496 -0.365373 -0.296654 -0.496498 -0.423755 -0.289431 -0.087192 -0.059373 0.000000 0.000000 -0.003052 -0.091658 -0.263985 -0.634248 -0.539086 0.095646 0.537818 0.909507 0.393251 -0.734354 -0.688767 -0.737026 -0.584600 -0.482631 -0.376252 -0.415219 -0.427976 -0.468210 -0.337384 -0.381514 -0.523418 -0.343193 -0.157698 -0.052922 -0.004378 0.000000 0.000000 0.000000 -0.022773 -0.078203 -0.295761 -0.463069 -0.225672 -0.179508 -0.082385 0.301560 0.876747 0.524899 -0.065237 -0.245881 -0.234815 -0.121721 -0.072898 -0.468136 -0.725830 -0.531295 -0.200359 -0.290650 -0.265137 -0.172391 -0.086192 -0.029851 -0.002954 0.000000 0.000000 0.000000 -0.044842 -0.047363 -0.305077 -0.562910 -0.239165 0.253500 0.422509 0.050896 0.344947 0.492171 0.273440 0.249889 0.437948 0.300964 -0.220231 -0.346996 -0.287655 -0.525001 -0.340264 -0.129575 -0.235392 -0.259821 -0.131349 -0.070702 -0.008133 0.000000 0.000000 0.000000 -0.005869 0.013632 -0.118341 -0.354441 -0.230746 0.078998 0.302605 0.185413 0.081253 0.678836 0.942708 0.999628 1.075802 0.631257 0.276105 -0.275231 -0.548621 -0.627726 -0.467974 -0.192613 -0.260622 -0.206546 -0.068163 -0.002642 -0.000039 0.000000 0.000000 0.000000 0.000000 0.000000 -0.175110 -0.329493 -0.254849 -0.116484 0.033186 -0.141272 -0.126153 0.240324 1.164584 1.216637 0.872192 0.698520 0.353032 0.172881 -0.170429 -0.390474 -0.436473 -0.446447 -0.462240 -0.289570 -0.010282 0.000000 0.000000 0.000000 0.000000 0.000000 0.000000 0.000000 -0.051736 -0.157627 -0.396599 -0.332400 -0.140314 -0.192726 -0.027050 0.185125 0.483214 0.535121 0.417587 0.278637 0.083890 0.020072 -0.066907 -0.336181 -0.385080 -0.352721 -0.185149 -0.077145 0.000000 0.000000 0.000000 0.000000 0.000000 0.000000 0.000000 0.000000 0.000000 0.000000 0.000000 0.000000 0.087827 0.152193 0.152193 0.101061 0.003609 0.000000 0.000000 0.000000 -0.022604 -0.022604 -0.011346 0.000000 0.000000 0.000000 0.000000 0.000000 0.000000 0.000000 0.000000 0.000000 0.000000 0.000000 0.000000 0.000000 0.000000 0.000000 0.000000 0.000000 0.000000 0.000000 0.000000 0.000000 0.000000 0.000000 0.000000 0.000000 0.000000 0.000000 0.000000 0.000000 0.000000 0.000000 0.000000 0.000000 0.000000 0.000000 0.000000 0.000000 0.000000 0.000000 0.000000 0.000000 0.000000 0.000000 0.000000 0.000000 0.000000 0.000000 0.000000 0.000000 0.000000 0.000000 0.000000 0.000000 0.000000 0.000000 0.000000 0.000000 0.000000 0.000000 0.000000 0.000000 0.000000 0.000000 0.000000 -274.892956 
0.000000 0.000000 0.000000 0.000000 0.000000 0.000000 0.000000 0.000000 0.000000 0.000000 0.000000 0.000000 0.000000 0.000000 0.000000 0.000000 0.000000 0.000000 0.000000 0.000000 0.000000 0.000000 0.000000 0.000000 0.000000 0.000000 0.000000 0.000000 0.000000 0.000000 0.000000 0.000000 0.000000 0.000000 0.000000 0.000000 0.000000 0.000000 0.000000 0.000000 0.000000 0.000000 0.000000 0.000000 0.016569 0.045288 0.021539 0.000000 0.000000 0.000000 0.000000 0.000000 0.000000 0.000000 0.000000 0.000000 0.000000 0.000000 0.000000 0.000000 0.000000 0.000000 0.000000 0.000000 0.000000 0.000000 0.000000 0.000000 -0.001931 -0.008833 -0.004685 -0.001037 -0.027413 -0.098783 -0.098423 -0.022758 0.000000 0.000000 0.000000 0.000000 0.000000 0.000000 0.000000 0.000000 0.000000 0.000000 0.000000 0.000000 0.000000 0.000000 -0.107506 -0.107084 -0.116013 -0.101612 -0.068692 -0.193243 -0.021676 0.040537 0.224068 0.261461 -0.327147 -0.302050 -0.440145 -0.279699 -0.057885 -0.012973 0.045105 0.040940 0.000000 0.000000 0.000000 0.000000 0.000000 0.000000 0.000000 0.000000 0.000000 -0.010104 -0.250228 -0.243240 -0.284401 -0.356292 -0.434837 -0.618459 -0.673038 -0.348140 -0.001730 0.131816 -0.043413 -0.353831 -0.384243 -0.298890 0.052467 0.227849 0.175680 0.075948 0.036305 0.016711 0.000000 0.000000 0.000000 0.000000 0.000000 0.000000 0.000000 -0.008982 -0.277388 -0.364780 -0.514205 -0.668356 -0.665845 -0.915814 -1.146099 -0.899863 -0.087243 0.064471 -0.086302 0.058659 -0.150914 -0.188593 0.008834 0.065906 0.211477 0.241500 0.063989 0.021880 0.000000 0.000000 0.000000 0.000000 0.000000 0.000000 0.000000 -0.014719 -0.177349 -0.412518 -0.583909 -0.665894 -0.666825 -0.536796 -0.936432 -0.142488 0.434825 0.288535 -0.112144 -0.148050 0.005468 -0.133270 0.181774 0.239051 0.053527 0.147699 0.167106 0.059172 0.000800 0.000000 0.000000 0.000000 0.000000 0.000000 0.000000 -0.035126 -0.085216 -0.229945 -0.421655 -0.344796 -0.489168 -0.357558 -0.280533 0.009797 0.210470 0.179014 0.149466 -0.127676 0.190399 0.341534 0.069098 0.331503 0.387329 0.307096 0.187168 0.217433 0.076775 0.000000 0.000000 0.000000 0.000000 0.000000 -0.000451 -0.049728 -0.083853 -0.276470 -0.335795 -0.238287 -0.441324 0.032843 0.215884 0.170004 0.344647 0.017901 -0.059619 0.064595 0.335093 0.313908 -0.113835 0.237293 0.276725 0.497527 0.331693 0.159456 0.143953 0.000000 0.000000 0.000000 0.000000 0.000000 -0.035612 -0.146444 -0.178165 -0.206500 -0.162186 -0.003375 0.052252 0.293246 0.663347 0.786907 0.309610 -0.454376 -0.615839 -0.043720 0.267750 0.073476 0.182131 0.023569 0.070680 0.312836 0.410545 0.165918 0.102366 0.000000 0.000000 0.000000 0.000000 0.000000 -0.036943 -0.150485 -0.193119 -0.114886 0.195663 0.587376 0.417287 0.577834 0.687613 0.451062 -0.343985 -0.679939 -0.843430 -0.540832 0.180687 0.301809 0.157864 0.178408 0.435777 0.752953 0.499747 0.272522 0.053582 0.000000 0.000000 0.000000 0.000000 0.000000 -0.031888 -0.085681 -0.039156 0.217142 0.507925 0.522720 0.351381 0.267125 0.661573 0.162758 -0.358132 -0.966912 -1.248697 -1.274096 -0.594558 0.040828 -0.042846 0.443946 0.818812 0.904611 0.533571 0.375642 0.000000 0.000000 0.000000 0.000000 0.000000 0.000000 -0.048881 -0.029095 0.095054 0.500574 0.544472 0.309879 0.408526 0.400134 0.738618 0.314554 -0.868699 -1.096770 -1.326043 -1.871760 -1.016301 0.236659 0.238417 0.389176 0.779002 0.917741 0.692384 0.412029 0.005902 0.000000 0.000000 0.000000 0.000000 0.000000 -0.028370 0.004429 0.136184 0.608734 0.735226 0.456995 0.718544 0.908205 0.738533 0.001020 -0.995047 -1.436680 -1.815745 -2.362886 -1.219854 0.195133 0.228057 0.116014 0.544901 0.883239 0.668373 0.377996 0.037545 0.000000 0.000000 0.000000 0.000000 0.000000 0.000000 -0.135703 0.171160 0.742317 0.689414 0.551290 0.932057 0.926784 0.869429 -0.086688 -1.037333 -1.553680 -1.834475 -1.857556 -1.122254 -0.006860 0.118693 0.121604 0.441413 0.526266 0.616555 0.324531 0.054250 0.000000 0.000000 0.000000 0.000000 0.000000 0.000000 -0.124160 0.442892 0.597433 0.617310 0.582284 1.165450 1.276628 0.871393 -0.187290 -1.161884 -1.370331 -1.424242 -1.079144 -0.474172 0.336513 0.075961 -0.056807 0.013340 0.216839 0.344323 0.173417 0.042201 0.000000 0.000000 0.000000 0.000000 -0.018183 -0.021449 -0.083469 0.426285 0.506908 0.533195 1.081166 1.589300 1.193279 0.348345 -0.332875 -0.942429 -0.848112 -0.766061 -0.523769 0.410576 0.564493 0.179834 -0.274562 -0.119538 0.017422 0.213033 0.092394 0.013430 0.000000 0.000000 0.000000 0.000000 -0.032525 -0.105488 -0.013978 0.473879 0.353605 0.530517 1.268974 1.846003 1.213484 0.153711 -0.262703 -0.578681 -0.175439 -0.189242 -0.301121 0.199540 0.274959 -0.369537 -0.304924 -0.205752 -0.019424 0.035003 0.038454 0.007282 0.000000 0.000000 0.000000 0.000000 -0.048894 -0.233129 -0.084949 0.106108 0.187934 0.609029 1.064442 1.277837 0.499840 -0.088145 0.011675 -0.502790 -0.234018 -0.225280 0.017619 0.030143 -0.439193 -0.329647 -0.421620 -0.286763 -0.098051 -0.027502 -0.016940 0.001214 0.000000 0.000000 0.000000 0.000000 -0.066888 -0.149369 -0.244362 -0.113268 0.004241 0.485021 0.791094 0.775968 0.248975 0.243971 0.459483 -0.313512 -0.517811 -0.444005 0.108694 -0.358073 -0.450196 -0.442501 -0.369701 -0.308127 -0.122680 -0.026423 -0.083654 0.000000 0.000000 0.000000 0.000000 0.000000 -0.023113 -0.201269 -0.369681 -0.302943 0.048142 0.333205 0.021196 0.031050 0.204562 0.467106 0.392058 -0.233672 -0.079504 0.209577 -0.093966 -0.313589 -0.299291 -0.399766 -0.411130 -0.354845 -0.071344 -0.046492 -0.012648 0.000000 0.000000 0.000000 0.000000 0.000000 -0.007226 -0.126484 -0.133885 -0.226910 -0.092265 0.197296 0.136115 0.064785 0.508936 0.718386 0.925733 0.540006 0.400631 0.033719 -0.220448 -0.235075 -0.317041 -0.418232 -0.352253 -0.120303 0.015835 -0.000632 0.000000 0.000000 0.008066 0.000000 0.000000 0.000000 -0.001885 -0.073914 -0.119660 -0.224184 -0.018718 0.104560 -0.004068 -0.021797 -0.099780 0.427453 0.896473 0.738033 0.373412 0.085917 0.045803 0.038755 -0.433305 -0.349179 -0.129118 0.048309 0.019277 0.000000 0.000000 0.000000 0.000832 0.000000 0.000000 0.000000 0.000000 -0.042850 -0.115349 -0.269015 -0.380699 -0.324271 -0.317937 -0.278107 -0.358573 -0.089867 0.207194 -0.084513 0.176189 0.195306 0.030874 -0.211265 -0.212584 -0.100592 0.044531 0.028608 0.002184 0.000000 0.000000 0.000000 0.000000 0.000000 0.000000 0.000000 0.000000 -0.024490 -0.055902 -0.126041 -0.247177 -0.257829 -0.371947 -0.484938 -0.488242 -0.481242 -0.330641 -0.330467 -0.024160 0.026349 -0.108391 -0.147081 -0.066237 0.024950 0.003276 0.000000 0.000000 0.000000 0.000000 0.000000 0.000000 0.000000 0.000000 0.000000 0.000000 0.000000 -0.011940 -0.011861 -0.011861 -0.106672 -0.186640 -0.130652 -0.201564 -0.172105 -0.092198 -0.174797 -0.150075 -0.069890 -0.058347 -0.041776 -0.010105 0.000000 0.000000 0.000000 0.000000 0.000000 0.000000 0.000000 0.000000 0.000000 0.000000 0.000000 0.000000 0.000000 0.000000 0.000000 0.000000 0.000000 0.000000 0.000000 0.000000 -0.002447 -0.009491 0.000000 0.000000 0.000000 -0.010446 -0.023182 -0.008338 0.000000 0.000000 0.000000 0.000000 0.000000 0.000000 0.000000 0.000000 0.000000 0.000000 0.000000 0.000000 0.000000 0.000000 0.000000 0.000000 0.000000 0.000000 0.000000 0.000000 0.000000 0.000000 0.000000 0.000000 0.000000 0.000000 0.000000 0.000000 0.000000 0.000000 0.000000 0.000000 0.000000 0.000000 0.000000 0.000000 -45.565277 
0.000000 0.000000 0.000000 0.000000 0.000000 0.000000 0.000000 0.000000 0.000000 0.000000 0.000000 0.000000 0.000000 0.000000 0.000000 0.000000 0.000000 0.000000 0.000000 0.000000 0.000000 0.000000 0.000000 0.000000 0.000000 0.000000 0.000000 0.000000 0.000000 0.000000 0.000000 0.000000 0.000000 0.000000 0.000000 0.000000 0.000000 0.000000 0.000000 0.000000 0.000000 0.000000 0.000000 0.000000 0.023203 0.063423 0.030164 0.000000 0.000000 0.000000 0.000000 0.000000 0.000000 0.000000 0.000000 0.000000 0.000000 0.000000 0.000000 0.000000 0.000000 0.000000 0.000000 0.000000 0.000000 0.000000 0.000000 0.000000 0.000000 0.000000 -0.026174 -0.104286 -0.059709 0.011602 0.000516 0.000000 0.000000 0.000000 0.000000 0.000000 0.000000 0.000000 0.000000 0.000000 0.000000 0.000000 0.000000 0.000000 0.000000 0.000000 0.000000 0.000000 0.000000 0.000000 0.000000 0.000000 0.000000 0.000036 -0.034902 0.010771 0.174809 0.405470 0.163835 -0.112787 -0.117715 -0.027259 0.017917 0.048544 0.000000 0.000000 0.000000 0.000000 0.000000 0.000000 0.000000 0.000000 0.000000 0.000000 0.000000 0.000000 -0.021864 -0.015475 0.008658 0.001573 -0.001287 0.133568 0.370099 0.404487 0.444298 0.450103 0.472159 0.092339 -0.370923 -0.366370 -0.057830 0.006199 -0.019301 -0.048863 -0.008529 0.000000 0.000000 0.000000 0.000000 0.000000 0.000000 0.000000 0.000172 -0.010814 -0.047421 -0.062911 0.025379 0.133649 0.199186 0.495414 0.694293 0.595852 0.644794 0.270551 0.384733 0.145230 -0.322540 -0.497990 -0.154537 -0.145764 -0.165935 -0.078864 -0.015799 0.000000 0.000000 0.000000 0.000000 0.000000 0.000000 0.000000 0.014153 -0.007264 -0.067374 -0.057062 0.094649 0.323001 0.455424 0.443424 0.375542 0.243792 0.358697 0.332587 0.384112 0.224456 -0.264784 -0.284768 0.019149 -0.063635 -0.136445 -0.079453 -0.039045 0.000000 0.000000 0.000000 0.000000 0.000000 0.000000 0.000238 0.001547 -0.075522 -0.167006 -0.033442 0.128959 0.321393 0.477567 0.172876 0.003520 0.296915 0.352253 0.523898 0.700858 0.322905 -0.240260 -0.071632 0.170440 0.008416 -0.124186 -0.014469 -0.003507 0.000000 0.000000 0.000000 0.000000 0.000000 0.000000 -0.017998 -0.069031 -0.129213 -0.211137 -0.043145 -0.032953 0.297063 0.248838 -0.102142 -0.118036 0.215045 0.290599 0.684548 0.722374 0.458351 -0.050545 0.102120 0.183299 0.249234 0.047420 -0.032030 -0.004075 0.000000 0.000000 0.000000 0.000000 0.000000 -0.009281 -0.069572 -0.109776 -0.135880 -0.202927 -0.188434 -0.012226 0.037552 -0.079975 -0.007120 0.110781 0.331428 0.406396 0.695459 0.678203 0.255104 -0.079761 0.009795 0.200441 0.359263 0.300743 0.051948 -0.019931 0.000000 0.000000 0.000000 0.000000 0.000000 -0.009300 -0.082003 -0.102826 -0.145389 -0.180353 -0.098040 -0.078186 -0.032112 0.029979 0.084617 0.360345 0.550983 0.393454 0.431419 0.145588 0.160375 0.132464 0.116369 0.128532 0.373658 0.376485 0.116411 -0.011194 0.000000 0.000000 0.000000 0.000000 0.000000 0.002574 -0.061328 -0.129895 -0.160108 -0.029457 -0.076509 -0.194081 -0.054233 0.115720 0.320290 0.585783 0.497085 0.196836 0.037650 -0.415063 -0.353221 0.305699 0.288000 0.170450 0.379071 0.404068 0.210332 0.011017 0.000000 0.000000 0.000000 0.000000 0.000000 -0.017447 -0.087785 -0.263439 -0.013020 0.061780 -0.185200 -0.277807 -0.009091 0.213500 0.206347 0.449083 0.179775 -0.057339 -0.509151 -0.907309 -0.541812 0.338249 0.199751 0.226319 0.416136 0.310221 0.182436 0.015984 0.000000 0.000000 0.000000 0.000000 0.000000 -0.051637 -0.122324 -0.201253 0.092113 0.023615 -0.422244 -0.250290 -0.155734 0.080968 0.050261 -0.022444 -0.242513 -0.474140 -0.939340 -1.245490 -0.734922 -0.007475 0.100648 0.205365 0.425090 0.249656 0.058221 0.015984 0.000000 0.000000 0.000000 0.000000 0.000000 -0.083750 -0.246312 -0.049466 0.102359 -0.197133 -0.601512 -0.399663 -0.339836 -0.287973 -0.374515 -0.635213 -0.937062 -0.951834 -1.197035 -1.252094 -0.691305 -0.055893 0.335967 0.469864 0.487494 0.285213 0.065386 0.012290 0.000000 0.000000 0.000000 0.000000 0.000000 -0.063641 -0.229542 0.118128 -0.016671 -0.373250 -0.538015 -0.371565 -0.300782 -0.368426 -0.637655 -1.096141 -1.263061 -1.149300 -1.205957 -1.026784 -0.365369 0.203068 0.433323 0.238743 0.323905 0.282073 0.130604 0.005986 0.000000 0.000000 0.000000 0.000000 0.000000 -0.023959 -0.123092 0.270145 -0.159643 -0.374541 -0.376934 -0.110885 -0.155663 -0.330556 -0.830707 -1.173431 -1.187725 -1.205009 -1.146655 -0.773760 0.004689 0.198623 0.158996 0.083917 0.372060 0.274736 0.188643 0.002993 0.000000 0.000772 0.000000 0.000000 0.000000 0.000000 0.133409 0.188448 -0.051020 -0.163205 -0.164904 -0.107148 0.083103 0.049432 -0.399810 -0.818954 -0.903641 -0.870445 -0.832552 -0.353698 0.043200 0.063504 0.048470 -0.000657 0.120330 0.133376 0.065024 -0.035377 0.000000 0.006694 0.000000 0.000000 0.000000 0.000000 0.156071 0.204427 0.107743 0.124106 0.115925 0.166080 0.576041 0.319562 -0.212235 -0.615456 -0.658570 -0.730303 -0.588857 0.059578 0.074103 0.027070 -0.176387 -0.028471 0.044697 0.072040 -0.004319 -0.081096 0.000000 0.000000 0.000000 0.000000 0.000000 0.000000 0.150463 0.282418 0.249252 0.238159 0.187997 0.511692 0.773486 0.372549 0.111492 -0.234120 -0.365184 -0.400517 -0.241492 -0.032051 -0.162120 0.086782 -0.023420 0.012678 0.022668 -0.022115 -0.094055 -0.037010 0.000000 0.000000 0.000000 0.000000 0.000000 0.000000 0.109043 0.200134 0.405559 0.478861 0.413833 0.729529 0.944907 0.628551 0.718643 0.447585 0.075609 0.050412 0.004654 0.010489 0.097510 0.202092 0.000497 -0.025572 -0.012490 0.005066 -0.000980 0.000000 0.000000 0.000000 0.000000 0.000000 0.000000 0.000000 0.086856 0.219686 0.397160 0.561357 0.671447 0.692162 0.764564 0.785220 1.031497 0.958311 0.613123 0.514041 0.247989 0.154465 0.247037 0.120496 -0.198308 -0.140773 -0.028742 0.016249 0.000690 0.000000 0.000000 0.000000 0.000000 0.000000 0.000000 0.000000 0.037389 0.164166 0.271060 0.403653 0.490548 0.479741 0.534919 0.771381 0.964267 0.895561 0.692566 0.434686 0.016725 0.055787 0.005908 -0.126123 -0.228546 -0.187193 -0.036606 0.004409 0.000000 0.000000 0.000000 0.000000 0.000000 0.000000 0.000000 0.000000 0.001346 0.013315 0.105789 0.263824 0.331756 0.248466 0.069683 0.163058 0.303920 0.230342 0.128513 0.046185 0.037674 0.073364 -0.202820 -0.213588 -0.251309 -0.170860 -0.056681 -0.003719 0.000000 0.000000 0.000000 0.000000 0.000000 0.000000 0.000000 0.000000 0.000000 0.000000 -0.008337 -0.001634 0.074797 0.095256 0.104458 0.092000 0.142256 -0.075587 -0.037125 -0.153132 -0.210926 -0.132292 -0.084795 -0.095580 -0.094929 -0.026943 -0.024514 -0.012728 0.000000 0.000000 0.000000 0.000000 0.000000 0.000000 0.000000 0.000000 0.000000 0.000000 0.000000 0.000000 0.047029 0.078207 0.103468 0.061133 -0.072133 -0.105395 -0.045815 -0.041450 -0.050572 -0.021216 -0.015125 -0.015125 -0.000708 0.000000 0.000000 0.000000 0.000000 0.000000 0.000000 0.000000 0.000000 0.000000 0.000000 0.000000 0.000000 0.000000 0.000000 0.000000 0.000000 0.000000 0.000000 0.000000 0.000000 0.000000 0.000000 0.000000 0.000000 0.000000 0.000000 0.000000 0.000000 0.000000 0.000000 0.000000 0.000000 0.000000 0.000000 0.000000 0.000000 0.000000 0.000000 0.000000 0.000000 0.000000 0.000000 0.000000 0.000000 0.000000 0.000000 0.000000 0.000000 0.000000 0.000000 0.000000 0.000000 0.000000 0.000000 0.000000 0.000000 0.000000 0.000000 0.000000 0.000000 0.000000 0.000000 680.392981 
0.000000 0.000000 0.000000 0.000000 0.000000 0.000000 0.000000 0.000000 0.000000 0.000000 0.000000 0.000000 0.000000 0.000000 0.000000 0.000000 0.000000 0.000000 0.000000 0.000000 0.000000 0.000000 0.000000 0.000000 0.000000 0.000000 0.000000 0.000000 0.000000 0.000000 0.000000 0.000000 0.000000 0.000000 0.000000 0.000000 0.000000 0.000000 0.000000 0.000000 0.000000 0.000000 0.000000 0.000000 0.162871 0.445182 0.211733 0.000000 0.000000 0.000000 0.000000 0.000000 0.000000 0.000000 0.000000 0.000000 0.000000 0.000000 0.000000 0.000000 0.000000 0.000000 0.000000 0.000000 0.000000 0.000000 0.000000 0.000000 0.000000 0.000000 0.000000 0.000000 0.000000 0.081436 0.003619 0.000000 0.000000 0.000000 0.000000 0.000000 0.000000 0.000000 0.000000 0.000000 0.000000 0.000000 0.000000 0.000000 -0.000308 -0.004471 0.000000 0.000000 0.000000 -0.003775 -0.007351 -0.015156 -0.025827 0.036215 0.293276 0.319232 0.088769 0.128244 -0.068795 -0.125149 -0.053378 -0.210896 -0.219086 -0.217428 -0.273351 -0.148124 0.000000 0.000000 0.000000 0.000000 0.000000 0.000000 -0.000540 0.000000 0.000000 0.000000 0.000941 0.008539 -0.019903 -0.154540 -0.154960 0.159935 0.697065 0.687403 0.500231 -0.292648 -0.216975 -0.500142 -0.707561 -0.581531 -0.617720 -0.318480 -0.341478 -0.103823 -0.007786 0.000000 0.000000 0.000000 0.000000 0.000000 -0.004240 0.000000 0.001011 0.016949 -0.053269 -0.153175 -0.099636 0.039137 -0.481547 -0.013545 0.683773 0.715895 0.631378 0.085716 0.075027 0.272333 -0.040980 -0.567992 -0.687403 -0.559159 -0.574292 -0.204451 -0.025069 0.000000 0.000000 0.000000 0.000000 0.000000 0.000000 0.001136 0.051784 0.063430 -0.305295 -0.499924 -0.342967 -0.598898 -0.471586 -0.168860 -0.075171 -0.456065 -0.013005 0.257750 0.354797 0.161372 -0.159564 -0.220673 -0.353027 0.115731 -0.315327 -0.408067 -0.287613 -0.120588 0.000000 0.000000 0.000000 0.000000 0.000000 0.002599 0.087336 -0.042010 -0.465205 -0.444425 -0.384084 -0.278230 0.548818 0.345844 0.338049 0.328416 0.772084 1.004024 0.688491 0.914213 0.167642 0.040169 0.297915 -0.112338 -0.898250 -1.268338 -0.452019 -0.192064 0.000000 0.000000 0.000000 0.000000 0.000000 0.003448 0.026259 0.054765 0.020997 -0.225648 -0.169194 0.171034 0.373460 0.401325 0.247407 0.152884 0.330626 1.389841 1.694844 1.141916 -0.055258 -0.405363 -0.075206 -0.110811 -0.829084 -1.644552 -1.111015 -0.384774 0.000000 0.000000 0.000000 0.000000 0.000000 0.000682 0.091040 0.176429 0.083277 -0.140761 0.002525 -0.158468 -0.349201 -0.771946 0.133529 0.437816 -0.140098 0.216226 0.583288 0.400318 0.548912 0.321460 0.323990 0.687478 0.351273 -0.702394 -1.119715 -0.351349 0.000000 0.000000 0.000000 0.000000 0.000000 -0.039171 0.037048 0.229659 0.130246 -0.012457 -0.418100 -0.640576 -0.914467 -0.819737 -0.174213 0.029272 -0.491295 -0.703803 0.222922 0.576632 1.050927 0.828145 0.926910 1.484148 1.212712 0.165544 -0.464039 -0.274408 0.000000 0.000000 0.000000 0.000000 0.011334 -0.062942 0.214668 0.363468 0.201077 -0.186345 -0.469896 -0.659909 -0.486874 -0.644065 -1.079840 -1.245698 -1.967890 -1.229394 -0.193165 0.448165 1.025358 0.852304 1.147514 1.937857 1.720036 0.591338 -0.216650 -0.115608 0.000000 0.000000 0.000000 0.000000 0.208131 0.171420 0.467057 0.511562 0.344089 -0.242021 -0.281272 -0.515351 -0.009298 -0.084074 -0.965882 -2.009342 -1.895760 -1.685680 -0.420919 0.668417 1.137900 1.012924 1.674037 2.249242 1.957453 1.126515 0.202565 0.000000 0.000000 0.000000 0.000000 0.000000 0.141158 0.115018 0.467389 0.571523 0.313187 0.078316 0.003919 0.000036 0.229147 0.074990 -1.608172 -2.460981 -2.304492 -1.645661 -0.643456 0.027061 0.885034 0.530536 1.581147 2.008110 1.578187 0.993012 0.180930 0.000000 0.000000 0.000000 0.000000 0.000000 0.000000 0.157677 0.632076 1.062457 1.013853 0.487923 0.009041 0.204731 0.582962 0.253845 -1.289745 -1.669239 -1.241297 -0.712518 0.146411 -0.232390 0.523755 0.760812 1.793809 1.603949 1.039583 0.696239 0.124169 0.000000 0.000000 0.000000 0.000000 0.000000 0.016472 -0.011177 0.718834 1.012395 1.072374 1.078160 0.699023 0.375537 0.550119 -0.286248 -1.347550 -1.261866 -0.472862 -0.027302 0.697063 0.145463 0.547040 1.004419 1.545791 0.874207 0.802808 0.525144 0.055051 0.000000 0.000000 0.000000 0.000000 0.000000 0.005229 -0.008726 0.567748 1.022774 1.126906 1.513807 1.426439 1.463535 1.147266 -0.199331 -1.260578 -1.318214 -0.696600 -0.106488 0.381327 0.625856 0.795852 1.180182 0.888705 0.541958 0.536068 0.315314 0.026174 0.000000 0.000000 0.000000 0.000000 0.000000 -0.003181 0.109746 -0.102197 0.525356 1.446194 1.582682 1.809992 1.390276 0.868182 -0.016686 -1.015527 -1.042694 -0.595442 -0.716319 0.253035 0.722192 0.354321 0.389905 0.179908 0.365269 0.437740 0.120934 -0.025343 0.000000 0.000000 0.000000 0.000000 0.000000 -0.027455 -0.059896 -0.256607 0.045155 0.913416 1.511703 1.267862 1.061150 0.702485 -0.180679 -0.937527 -0.690798 -0.283378 0.073574 0.620887 0.457520 0.195237 -0.360079 -0.134861 0.103904 0.264808 0.092695 -0.004569 0.000000 0.000000 0.000000 0.000000 0.000000 -0.049180 -0.146959 0.206017 -0.124493 0.304142 0.472071 1.165501 1.147041 0.493000 0.148668 -0.084168 -0.077668 -0.110992 -0.053909 -0.195976 0.161530 0.293612 -0.158131 -0.480898 -0.044899 0.042383 0.008762 0.000000 0.000000 0.000000 0.000000 0.000000 0.000000 -0.037072 -0.002106 0.305951 0.172124 -0.038708 -0.101078 -0.188392 1.032482 0.371964 -0.066783 -0.505914 -0.194609 0.093878 -0.526622 -0.434561 -0.230970 0.096576 -0.553262 -0.695157 -0.263458 -0.007658 0.033242 0.000000 0.000000 0.000000 0.000000 0.000000 0.000000 0.004139 0.342175 0.628484 0.581839 0.286384 0.086591 -0.150379 0.250550 0.299430 0.149700 -0.475849 -0.386910 -0.856674 -0.808567 -0.642221 -0.291683 -0.694141 -0.499288 -0.575434 -0.386039 0.002640 0.004043 0.000000 0.000000 0.000000 0.000000 0.000000 0.000000 0.014499 0.182927 0.812658 0.876334 0.378073 0.265456 0.342848 0.405027 1.280715 1.161717 0.538207 -0.106705 -1.101164 -0.744903 -0.130651 -0.316352 -0.508191 -0.583671 -0.519074 -0.220805 -0.020410 0.074454 0.015652 0.000000 0.000000 0.000000 0.000000 0.000000 0.000000 0.009051 0.186252 0.383722 0.345593 0.407265 -0.252389 -0.507953 -0.332768 -0.100924 -0.001606 -0.366872 -0.123307 0.238164 -0.040799 -0.386742 -0.478674 -0.389111 -0.273093 -0.097708 0.035113 0.106605 0.019037 0.000000 0.000000 0.000000 0.000000 0.000000 0.000000 0.006514 -0.064799 -0.342405 -0.532664 -0.456425 -0.407008 -0.525341 -0.732177 -0.458362 -0.508714 -0.089478 0.008762 -0.056499 -0.250556 -0.286963 -0.268510 -0.208379 -0.170074 -0.054113 -0.029243 -0.003752 0.000000 0.000000 0.000000 0.000000 0.000000 0.000000 0.000000 0.000000 0.000000 -0.166135 -0.404458 -0.323358 -0.256746 -0.254814 -0.321186 -0.461111 -0.416898 -0.221290 -0.166855 -0.152079 -0.145450 -0.112776 -0.053525 -0.041503 -0.048275 -0.037813 -0.018245 0.000000 0.000000 0.000000 0.000000 0.000000 0.000000 0.000000 0.000000 0.000000 0.000000 0.000000 0.000000 0.000000 0.000000 0.000000 -0.007585 -0.020716 -0.020227 -0.005954 0.000000 -0.000620 -0.006297 -0.001587 0.000000 0.000000 0.000000 0.000000 0.000000 0.000000 0.000000 0.000000 0.000000 0.000000 0.000000 0.000000 0.000000 0.000000 0.000000 0.000000 0.000000 0.000000 0.000000 0.000000 0.000000 0.000000 0.000000 0.000000 0.000000 0.000000 0.000000 0.000000 0.000000 0.000000 0.000000 0.000000 0.000000 0.000000 0.000000 0.000000 -1492.376089 
0.000000 0.000000 0.000000 0.000000 0.000000 0.000000 0.000000 0.000000 0.000000 0.000000 0.000000 0.000000 0.000000 0.000000 0.000000 0.000000 0.000000 0.000000 0.000000 0.000000 0.000000 0.000000 0.000000 0.000000 0.000000 0.000000 0.000000 0.000000 0.000000 0.000000 0.000000 0.000000 0.000000 0.000000 0.000000 0.000000 0.000000 0.000000 -0.000466 -0.008024 -0.046235 0.000000 0.000000 -0.033620 -0.049046 0.028731 0.017601 0.000000 0.000000 0.000000 0.000000 0.000000 0.000000 0.000000 0.000000 0.000000 0.000000 0.000000 0.000000 0.000000 0.000000 0.000000 0.000000 0.000000 0.000000 -0.028168 -0.072581 -0.113646 -0.166940 -0.173366 -0.255747 -0.322203 -0.433343 -0.407824 -0.260367 -0.194035 -0.250789 -0.214383 -0.098441 -0.057081 -0.002393 0.000000 0.000000 0.000000 0.000000 0.000000 0.000000 0.000000 0.000000 0.000000 -0.054384 -0.180028 -0.149708 -0.066565 -0.133008 -0.380858 -0.291756 -0.286385 -0.253228 -0.526425 -0.770318 -0.436542 -0.712628 -0.828943 -0.631744 -0.542471 -0.279393 -0.312593 -0.114261 -0.006012 -0.001842 0.000000 0.000000 0.000000 0.000000 0.000000 0.000000 -0.006753 -0.144076 -0.210235 -0.207686 -0.044684 -0.239672 -0.413501 -0.096778 -0.230950 0.029153 -0.024775 0.052145 -0.211410 -0.482272 -0.588793 -0.533177 -0.535593 -0.364057 -0.270182 -0.312726 -0.001629 -0.016678 0.000000 0.000000 0.000000 0.000000 -0.016127 0.000000 -0.030576 -0.164535 -0.210509 -0.252108 -0.222792 -0.344127 -0.111048 -0.093362 0.044570 0.299677 0.302641 0.479221 -0.039619 -0.033145 -0.018241 -0.055506 -0.228480 -0.381746 -0.202185 -0.166309 -0.032391 -0.024532 0.000000 0.000000 0.000000 0.000000 -0.010695 0.000000 -0.043895 -0.121561 -0.143158 -0.245603 -0.226851 -0.191117 0.123300 0.040902 0.361258 0.240951 0.146465 0.405140 0.860671 0.920952 0.670334 0.658781 0.317570 -0.139363 0.048536 0.076114 0.004127 -0.010001 0.000000 0.000000 0.000000 0.000000 0.000000 0.000000 -0.047646 -0.099189 -0.180521 -0.157598 -0.130125 0.043099 0.310369 0.441445 0.537313 0.385772 0.406814 0.737086 1.105616 1.298958 1.090020 1.051546 0.790552 0.241938 0.245103 0.168386 0.066893 0.086298 0.000000 0.000000 0.007046 0.000000 0.000000 0.000000 -0.047834 -0.141164 -0.177893 0.073995 -0.003625 0.006435 0.467021 0.559576 0.385686 0.198731 0.701642 1.276039 1.298543 1.459642 1.426587 1.260730 1.041168 0.662904 0.495995 0.120160 0.054649 0.022945 0.000000 0.000000 0.000000 0.000000 0.009202 0.002045 -0.042534 -0.103630 -0.181105 0.242453 -0.121365 0.204951 0.629658 0.162156 0.287283 0.494263 0.831758 1.191304 1.158327 1.184704 1.410696 1.292957 0.849924 0.595897 0.655649 0.512522 -0.084546 0.011695 0.000000 0.000000 0.000000 0.000000 0.047375 0.041581 0.017087 -0.050461 -0.009092 0.126969 0.213442 0.187763 0.460715 0.298997 0.464146 0.583484 0.521317 0.450285 0.205616 0.458437 0.852412 1.003170 1.142650 0.782526 0.584945 0.447630 0.025626 0.008728 0.000000 0.000000 0.000000 0.000000 0.000000 0.003760 -0.029551 -0.121623 0.232303 -0.033201 -0.080900 0.297190 0.368363 0.431050 0.367420 0.023116 -0.254474 -0.287152 -0.549394 -0.097699 0.367283 0.459821 0.930560 0.907137 0.494422 0.440749 0.073308 0.019558 0.000000 0.000000 0.000000 0.000000 0.000000 0.069044 0.040861 0.084997 0.179428 -0.049638 -0.168760 0.178599 0.218137 0.084179 -0.172044 -0.736393 -0.637083 -0.939860 -1.100565 -0.399396 0.070825 0.240568 0.454131 0.563761 0.440428 0.391159 0.311900 0.025471 0.000000 0.000000 0.000000 0.000000 0.000000 0.046827 0.007447 0.013637 0.123473 -0.027700 0.090225 -0.035550 0.117604 -0.489932 -0.644119 -1.145580 -1.294065 -1.515976 -1.573893 -0.944581 0.083632 0.075432 0.167888 0.422899 0.020571 0.369669 0.334847 0.039541 0.000000 0.000000 0.000000 0.000000 0.000000 0.000000 0.016176 0.204925 0.023584 0.258422 -0.137431 -0.261399 -0.228404 -0.744555 -0.861184 -1.241966 -1.254914 -1.512329 -1.775834 -0.844143 0.108011 0.201279 -0.148791 0.100043 -0.105271 0.312023 0.287973 0.124492 0.000000 0.000000 0.000000 0.000000 0.000000 0.000000 0.100180 0.342783 0.047948 0.158096 -0.379042 -0.239215 -0.332241 -0.823311 -0.929162 -1.470454 -1.472823 -1.609495 -1.610253 -0.888165 -0.181989 0.237292 -0.102293 -0.086259 -0.168050 0.101956 0.373019 0.125194 0.000000 0.000000 0.000000 0.000000 0.000000 0.000000 0.153328 0.023415 0.051510 -0.075737 -0.174976 -0.378375 -0.478846 -0.387171 -0.694662 -1.353684 -1.531845 -1.628525 -1.143180 -0.626591 -0.048549 0.072596 -0.104951 -0.013080 -0.256231 -0.059432 0.312623 0.109552 -0.022054 0.000000 0.000000 0.000000 0.000000 0.000337 0.157651 0.104704 0.087114 -0.112993 0.051290 -0.501329 -0.156446 -0.273263 -0.436034 -1.036954 -1.353218 -1.146324 -0.725528 -0.347316 -0.136496 -0.121097 -0.175801 -0.150688 -0.219297 -0.108836 0.297016 0.074001 -0.022054 0.000000 0.000000 0.000000 0.000000 0.000000 0.076331 0.215648 0.305480 -0.216298 -0.052730 -0.310786 -0.115153 -0.369797 -0.391792 -0.526238 -0.635197 -0.453908 -0.453515 -0.373727 -0.308714 -0.499154 -0.292583 -0.206651 -0.052843 0.220286 0.169508 -0.011699 0.000000 0.000000 0.000000 0.000000 0.000000 0.000000 0.116139 0.151056 0.317930 -0.242930 -0.447012 -0.252636 -0.157733 -0.435556 -0.163397 0.035785 0.160391 -0.079128 -0.346048 -0.406531 -0.343932 -0.312083 -0.021874 -0.002439 0.063142 0.027129 0.044280 0.000000 0.000000 0.000000 0.000000 0.000000 0.000000 0.000000 0.197801 0.358360 0.455327 0.181821 -0.229808 -0.335239 0.221228 -0.324109 -0.200109 -0.180949 -0.142601 -0.248799 -0.566300 -0.327435 -0.398246 -0.207693 0.171598 -0.035534 -0.036606 0.066054 0.038544 0.000000 0.000000 0.000000 0.000000 0.000000 0.000000 0.000000 0.024667 0.413924 0.470375 0.434988 0.249006 0.136060 0.041787 -0.096045 -0.253454 -0.172744 -0.160658 -0.158862 -0.071972 0.016909 0.187387 0.079419 -0.017527 -0.127261 0.065580 0.081290 0.004364 0.000000 0.000000 0.000000 0.000000 0.000000 0.000000 0.000000 0.000000 0.242735 0.421504 0.474010 0.739695 0.872325 0.614984 0.717120 1.090427 1.367308 0.954895 0.720976 0.551259 0.447108 0.175318 -0.003410 0.071435 0.060588 0.060680 0.013454 0.000000 0.000000 0.000000 0.000000 0.000000 0.000000 0.000000 0.000000 0.000000 0.014964 0.140971 0.272732 0.331085 0.588196 0.886906 1.057187 0.872709 0.727707 0.661676 0.603441 0.381411 0.102873 -0.047993 -0.049064 0.001364 0.001818 0.000000 0.000000 0.000000 0.000000 0.000000 0.000000 0.000000 0.000000 0.000000 0.000000 0.000000 0.000000 0.000000 0.003816 0.026814 0.087825 0.209492 0.255941 0.343901 0.290995 0.231278 0.136277 0.053286 0.004083 0.000000 0.000000 0.000000 0.000000 0.000000 0.000000 0.000000 0.000000 0.000000 0.000000 0.000000 0.000000 0.000000 0.000000 0.000000 0.000000 0.000000 0.000000 0.000000 0.000000 0.000000 0.000000 0.000000 0.000000 0.000000 0.000000 0.000000 0.000000 0.000000 0.000000 0.000000 0.000000 0.000000 0.000000 0.000000 0.000000 0.000000 0.000000 0.000000 0.000000 0.000000 0.000000 0.000000 0.000000 0.000000 0.000000 0.000000 0.000000 0.000000 0.000000 0.000000 0.000000 0.000000 0.000000 0.000000 0.000000 0.000000 0.000000 0.000000 0.000000 0.000000 0.000000 0.000000 0.000000 0.000000 0.000000 0.000000 0.000000 0.000000 0.000000 0.000000 0.000000 0.000000 0.000000 0.000000 0.000000 0.000000 0.000000 0.000000 0.000000 0.000000 0.000000 0.000000 0.000000 0.000000 0.000000 0.000000 0.000000 0.000000 0.000000 0.000000 0.000000 0.000000 -426.098704 
0.000000 0.000000 0.000000 0.000000 0.000000 0.000000 0.000000 0.000000 0.000000 0.000000 0.000000 0.000000 0.000000 0.000000 0.000000 0.000000 0.000000 0.000000 0.000000 0.000000 0.000000 0.000000 0.000000 0.000000 0.000000 0.000000 0.000000 0.000000 0.000000 0.000000 0.000000 0.000000 0.000000 0.000000 0.000000 0.000000 0.000000 0.000000 0.000000 0.000000 0.000000 0.000000 0.000000 0.000000 0.043509 0.118923 0.056561 0.000000 0.000000 0.000000 0.000000 0.000000 0.000000 0.000000 0.000000 0.000000 0.000000 0.000000 0.000000 0.000000 0.000000 0.000000 0.000000 0.000000 0.000000 0.000000 0.000000 0.000000 0.000000 0.000000 0.000000 0.000000 0.000000 0.021754 0.000967 0.000000 0.000000 0.000000 0.000000 0.000000 0.000000 0.000000 0.000000 0.000000 0.000000 0.000000 0.000000 0.000000 0.000000 0.000000 0.000000 0.000000 0.000000 0.000000 0.000000 0.000000 0.000000 0.005274 0.052199 0.085886 0.101770 0.062078 0.021352 0.021075 0.030721 0.024632 0.047423 0.026778 0.000000 0.000000 0.000000 0.000000 0.000000 0.000000 0.000000 0.000000 0.000000 0.000000 0.000000 0.008549 0.013678 0.006155 0.012857 0.064299 0.242128 0.442856 0.454127 0.467511 0.561971 0.513150 0.361515 0.289861 0.212867 0.122247 0.064131 0.030629 0.003833 0.000000 0.000000 0.000000 0.000000 0.000000 0.000000 0.000000 0.000000 0.000000 0.004802 0.009065 -0.050238 -0.078350 -0.002403 0.287927 0.507165 0.674907 0.874759 0.826616 1.222918 1.067177 0.978099 0.741944 0.423306 0.317842 0.231673 0.070688 0.010681 0.000000 0.000000 0.000000 0.000000 0.000000 0.000000 0.000000 0.000000 -0.025464 0.011834 -0.084101 -0.271420 -0.151822 -0.079404 0.019441 0.297617 0.375807 0.437411 0.457267 0.772303 0.918219 0.739407 0.472632 -0.041248 -0.141593 -0.017891 0.015748 0.026707 0.002974 0.000030 0.000000 0.000000 0.000000 0.000000 -0.013873 -0.017797 -0.055339 0.016497 -0.121837 -0.190837 -0.304172 -0.105750 0.247710 0.396445 0.160184 -0.027644 0.358992 0.469634 0.596268 0.641197 0.149812 -0.378656 -0.335782 -0.128505 -0.055509 -0.024059 0.009492 0.002859 0.000000 0.000000 0.000000 0.000000 -0.014587 -0.010930 -0.059966 -0.123500 -0.177006 -0.355395 -0.333037 -0.429835 0.119445 -0.123100 -0.386435 0.022363 0.144535 -0.012419 -0.118424 0.145638 0.292309 -0.020548 -0.313438 -0.075883 0.027886 -0.048975 -0.000986 0.005361 0.000000 0.000000 0.000000 0.000000 -0.011504 -0.008323 -0.053442 -0.094778 -0.124082 -0.415607 -0.650498 -0.380014 0.173374 -0.124518 -0.069197 -0.005485 0.071338 -0.297857 -0.311824 -0.506117 -0.336117 -0.328763 -0.468297 -0.234501 0.114443 0.172005 0.059392 0.003812 0.000000 0.000000 0.000000 0.000000 -0.033163 -0.033163 -0.085210 -0.067328 -0.171437 -0.497104 -0.365740 0.144393 0.330809 0.111887 0.288324 -0.030924 -0.134815 -0.330749 -0.415646 -0.536170 -0.329940 -0.824393 -0.721146 -0.301936 0.357635 0.311466 0.174146 0.001995 0.000000 0.000000 0.000000 0.000000 -0.038976 -0.039198 -0.090332 -0.064518 -0.222606 -0.568614 -0.045833 0.474553 0.376034 0.215900 0.326542 -0.004528 -0.105073 -0.205784 -0.296323 -0.456494 -0.453734 -0.501901 -0.660151 -0.444559 0.154041 0.606106 0.305444 0.000000 0.000000 0.000000 0.000000 0.000000 -0.032892 -0.087302 -0.175203 -0.156740 -0.245882 -0.305223 0.168228 0.439852 0.202433 0.314703 0.264174 -0.084924 -0.097484 -0.388523 -1.040965 -0.809169 -0.315703 0.174426 -0.188270 -0.018041 0.105971 0.603878 0.431783 -0.026515 0.000000 0.000000 0.000000 0.000000 -0.028927 -0.068671 -0.203757 -0.028833 0.051807 0.181657 0.390771 0.372388 0.094485 0.289640 0.396001 0.006958 -0.318109 -0.665133 -1.052384 -0.862608 -0.374323 0.056455 -0.186740 0.032663 0.339289 0.678314 0.369711 -0.016824 0.000000 0.000000 0.000000 0.000000 -0.045637 -0.047135 -0.142776 0.240197 0.329296 0.105217 0.451521 0.306404 0.036962 0.397592 0.357069 0.020833 -0.385853 -0.805342 -1.053037 -0.868424 -0.560993 -0.289044 -0.227113 -0.073420 0.603603 0.887921 0.511283 0.024825 0.000000 0.000000 0.000000 0.000000 -0.021740 -0.044859 -0.110534 0.338592 0.327413 0.128089 0.385617 0.015581 0.124110 0.472595 0.219799 -0.353202 -0.512455 -0.954511 -1.143715 -0.916882 -0.472221 -0.390682 -0.174371 0.160380 0.882563 0.937662 0.427445 0.023293 0.000000 0.000000 0.000000 0.000000 0.000000 -0.022998 -0.223066 0.309525 0.387777 0.269994 0.604196 0.207641 0.483320 0.510775 0.128683 -0.389949 -0.576453 -0.900689 -0.783609 -0.518829 -0.267775 -0.292532 0.103029 0.366747 0.887593 0.735965 0.362637 0.004101 0.000000 0.004760 0.000000 0.000000 0.000000 -0.010260 -0.208156 0.283942 0.406013 0.475279 0.820415 0.597970 0.953937 0.599852 0.216853 -0.284331 -0.830404 -0.730482 -0.264282 -0.156204 -0.338053 0.157836 0.465055 0.530398 0.695799 0.534431 0.245627 0.000000 0.000000 0.041255 0.000000 0.000000 0.000000 -0.015185 -0.161483 0.215044 0.664675 0.709335 0.827850 1.055376 1.161575 0.731763 0.410374 -0.346117 -0.633355 -0.325068 0.035356 -0.076766 -0.231055 0.247965 0.373277 0.406742 0.622703 0.358725 0.198849 0.000000 0.000000 0.000000 0.000000 0.000000 0.000000 0.000000 0.062165 0.405231 0.786273 1.041882 0.939744 1.186539 1.036094 0.764459 0.481910 -0.199284 -0.313118 0.112920 0.102483 -0.169619 0.101788 0.291489 0.405701 0.573799 0.567259 0.218671 0.144983 -0.003908 0.000000 0.000000 0.000000 0.000000 0.000000 0.000000 0.099703 0.264288 0.743563 1.082434 1.015103 1.234778 1.306943 0.834387 0.490804 0.267171 0.127310 0.315563 0.008821 0.161417 0.255635 0.460814 0.682764 0.659711 0.348564 0.158633 0.024514 0.000000 0.000000 0.000000 0.000000 0.000000 0.000000 0.000000 0.057783 0.129463 0.401737 0.850540 1.003013 1.153742 1.194884 0.945437 0.767892 0.482481 0.249084 0.131892 0.352126 0.296355 0.296972 0.365404 0.617019 0.215289 0.106629 0.020329 0.000000 0.000000 0.004131 0.000000 0.000000 0.000000 0.000000 0.000000 0.029810 0.053592 0.204423 0.296873 0.610498 0.784076 0.679566 1.149386 1.022123 0.733943 0.416788 0.284716 0.164402 0.041542 0.039800 0.180216 0.157174 0.069547 0.009260 0.000000 0.000000 0.000000 0.000426 0.000000 0.000000 0.000000 0.000000 0.000000 -0.001078 0.030093 0.017670 0.022167 0.178836 0.258337 0.171723 0.472003 0.538043 0.558361 0.425839 0.016429 -0.242549 -0.258721 0.067780 -0.019001 0.033539 0.004517 0.000075 0.000000 0.000000 0.000000 0.000000 0.000000 0.000000 0.000000 0.000000 0.000000 -0.014096 -0.037649 -0.083026 -0.203859 -0.252427 -0.387199 -0.495100 -0.368022 -0.081467 -0.230425 -0.367163 -0.460509 -0.504260 -0.171968 -0.079137 -0.125875 -0.006126 0.000000 0.000000 0.000000 0.000000 0.000000 0.000000 0.000000 0.000000 0.000000 0.000000 -0.007373 -0.036000 -0.024144 -0.104149 -0.186660 -0.371670 -0.426871 -0.669063 -0.495755 -0.572902 -0.487851 -0.478059 -0.464508 -0.484302 -0.309535 -0.196460 -0.062837 -0.037681 0.000000 0.000000 0.000000 0.000000 0.000000 0.000000 0.000000 0.000000 0.000000 0.000000 0.000000 0.000000 0.000000 -0.014281 -0.080733 -0.111073 -0.094164 -0.282750 -0.346045 -0.199510 -0.157152 -0.216045 -0.215346 -0.136068 -0.053582 -0.055611 -0.041994 -0.020554 0.000000 0.000000 0.000000 0.000000 0.000000 0.000000 0.000000 0.000000 0.000000 0.000000 0.000000 0.000000 0.000000 0.000000 0.000000 0.000000 0.000000 -0.078697 -0.067568 -0.003789 -0.012209 0.000000 0.000000 -0.000419 -0.010122 -0.005869 0.000000 0.000000 0.000000 0.000000 0.000000 0.000000 0.000000 0.000000 -3025.201321 
0.000000 0.000000 0.000000 0.000000 0.000000 0.000000 0.000000 0.000000 0.000000 0.000000 0.000000 0.000000 0.000000 0.000000 0.000000 0.000000 0.000000 0.000000 0.000000 0.000000 0.000000 0.000000 0.000000 0.000000 0.000000 0.000000 0.000000 0.000000 0.000000 0.000000 0.000000 0.000000 0.000000 0.000000 0.000000 0.000000 0.000000 0.000000 0.000000 0.000000 0.000000 0.000000 0.000000 0.000000 0.007216 0.019723 0.009380 0.000000 0.000000 0.000000 0.000000 0.000000 0.000000 0.000000 0.000000 0.000000 0.000000 0.000000 0.000000 0.000000 0.000000 0.000000 0.000000 0.000000 0.000000 0.000000 0.000000 0.000000 0.000000 0.000000 0.000000 0.000000 0.000000 0.003608 0.000160 0.000000 0.000000 0.000000 0.000000 0.000000 0.000000 0.000000 0.000000 0.000000 0.000000 0.000000 0.000000 0.000000 0.000000 0.000000 0.000000 0.000000 0.000000 0.000000 0.009006 0.000000 0.000000 -0.041249 -0.033454 0.106623 0.104402 0.084125 0.031675 0.003060 0.003004 0.000000 0.000000 0.000000 0.000000 0.000000 0.000000 0.000000 0.000000 0.000000 0.000000 0.000000 0.000000 0.000000 0.000000 0.004387 0.030256 0.036289 0.083701 -0.008020 0.026373 -0.111341 0.046121 -0.194502 -0.243878 -0.170742 0.049094 0.249513 -0.192922 -0.372149 -0.065782 0.046742 -0.014964 0.004411 0.000000 0.000000 0.000000 0.000000 0.000000 0.000000 0.000000 0.000000 0.016729 0.036925 0.037775 0.065900 -0.126360 -0.055879 -0.096025 -0.183505 -0.042587 0.127072 -0.253306 -0.440630 -0.131097 0.116344 -0.165975 -0.267384 -0.062929 -0.011949 -0.030189 -0.012598 -0.002604 0.000000 0.000000 0.000000 0.000000 0.000000 0.000000 0.000000 0.054953 0.038067 0.051905 -0.131693 -0.399496 -0.271197 -0.193240 -0.301215 0.237423 0.332888 -0.020230 -0.261017 -0.360338 -0.460075 -0.193074 0.077043 -0.003674 -0.090463 -0.012367 0.008025 -0.004323 0.000000 0.000000 0.000000 0.000000 0.000000 0.000000 0.000000 -0.020905 -0.042371 -0.125689 -0.432301 -0.412851 -0.248962 -0.045090 0.240074 0.259369 0.691485 0.431618 0.677569 0.144728 -0.280800 -0.120286 0.169286 0.039352 0.038005 -0.216178 0.008409 -0.007492 -0.000071 -0.000651 0.000000 0.000000 0.000000 0.000000 0.000000 -0.052680 -0.226415 -0.463381 -0.616119 -0.479871 -0.232783 0.153621 0.301674 0.270795 0.997825 0.761010 0.725918 0.520598 0.420150 -0.003520 0.019818 -0.090595 -0.066553 -0.237964 -0.082882 -0.047237 -0.001728 -0.001160 0.000000 0.000000 0.000000 0.000000 -0.028629 -0.127098 -0.314964 -0.436154 -0.492533 -0.366414 -0.160894 -0.304213 0.081372 0.369399 0.323354 0.102282 0.214363 0.552489 1.012233 0.233748 0.219704 -0.059942 -0.156338 -0.111379 -0.054481 -0.046708 -0.031256 0.000000 0.000000 0.000000 0.000000 0.005426 -0.027650 -0.114676 -0.196060 -0.280911 -0.387511 -0.531366 -0.174611 0.110270 0.325201 0.146002 -0.112075 -0.304879 -0.454121 0.509343 0.820561 -0.125795 0.195063 0.274193 0.237526 0.007433 -0.015955 -0.041322 -0.011469 0.000000 0.000000 0.000000 0.000000 0.072146 0.014644 -0.002641 0.010535 -0.111939 -0.285033 -0.399966 0.374616 0.814008 0.660877 0.277804 -0.640304 -1.181595 -0.915268 0.035720 0.681356 0.344172 -0.000761 0.321375 0.373853 0.414566 0.065744 -0.012049 -0.001318 0.000000 0.000000 0.000000 0.000000 0.128549 0.060739 0.094520 0.406216 0.462689 -0.018954 0.183228 0.496708 0.762831 0.506473 -0.525589 -1.889238 -1.687862 -0.765748 -0.226797 0.568645 0.129210 0.034014 0.421472 0.601729 0.700428 0.197472 -0.002673 -0.002103 0.000000 0.000000 0.000000 0.000000 0.101578 0.011660 0.189901 0.761610 0.817878 0.282131 0.312805 -0.016834 -0.355852 -0.681824 -2.199920 -2.373226 -2.034441 -1.526920 -0.665133 0.117332 0.024323 0.076763 0.585621 0.703281 0.822692 0.265129 0.006086 -0.001210 0.000000 0.000000 0.000000 0.000000 0.000000 0.001954 0.519933 0.940089 0.865216 0.785699 0.533631 -0.649029 -0.982280 -1.203384 -2.014454 -2.282697 -2.188904 -1.743357 -0.580290 0.248337 0.489315 0.253267 0.509264 0.787684 0.793491 0.234945 -0.003022 0.000000 0.000000 0.000000 0.000000 0.000000 -0.026020 0.062421 0.621540 0.969891 0.834334 0.664131 0.429334 -0.629154 -0.340028 -0.859641 -1.974593 -2.203921 -1.724425 -0.890897 -0.207748 0.447827 0.427296 0.350868 0.637385 0.576357 0.674206 0.202624 -0.030426 0.000000 0.000000 0.000000 0.000000 0.000000 -0.068379 0.089861 0.632405 0.727961 0.783912 1.049760 0.286169 -0.032866 -0.312958 -0.792931 -1.618238 -1.913589 -1.577753 -0.439005 0.111289 0.839402 0.478653 0.469369 0.627864 0.450583 0.265855 0.111121 -0.020993 0.000000 0.000000 0.000000 0.000000 0.000000 -0.017246 -0.006155 0.409230 0.464573 0.750904 0.912008 0.387106 0.203410 -0.543895 -0.857129 -0.919117 -1.188924 -0.987748 0.089655 0.822972 1.003932 0.617263 0.874355 0.349126 0.353115 0.005707 0.035796 0.012331 0.000000 0.000000 0.000000 0.000000 0.000000 0.000000 -0.096310 0.192090 0.565891 0.586215 0.912895 0.791870 0.362410 -0.248716 -0.836430 -0.684669 -0.730427 -0.031677 0.497103 0.990435 0.704485 0.525254 0.501592 0.282077 0.290276 -0.101101 -0.050969 0.004566 0.000000 0.000000 0.000000 0.000000 0.000000 0.000000 -0.168333 -0.049521 0.436931 0.386610 0.939727 0.759595 0.309986 0.115985 -0.081120 -0.188771 0.049517 0.463690 0.694943 0.512782 0.111749 0.286207 0.221169 0.128038 0.084506 -0.086481 -0.067945 0.000000 0.000000 0.000000 0.000000 0.000000 0.000000 0.000000 -0.181953 -0.205749 0.143643 0.156423 0.882522 0.432722 0.272599 0.136928 0.344849 0.267611 0.338619 0.468239 0.444842 -0.088824 0.137938 0.240994 0.090172 -0.025086 -0.065813 -0.208561 -0.013678 0.000000 0.000000 0.000000 0.000000 0.000000 0.000000 0.000000 -0.164572 -0.188575 -0.331093 -0.233254 0.429619 0.411153 0.327169 0.146346 0.167973 0.084114 0.028638 0.094574 -0.023977 -0.018307 -0.069089 -0.095314 0.007486 -0.129088 -0.202124 -0.101305 -0.004043 0.000000 0.000000 0.000000 0.000000 0.000000 0.000000 0.000000 -0.032282 -0.078286 -0.422143 -0.533576 -0.140618 0.026161 -0.107129 0.034751 0.122972 0.046686 -0.042380 -0.034117 -0.267519 -0.155687 -0.209190 -0.171145 -0.169192 -0.228924 -0.061953 -0.000470 -0.002444 -0.001018 0.000000 0.000000 0.000000 0.000000 0.000000 0.000000 0.002503 0.060402 0.129823 -0.188962 -0.070043 -0.017783 -0.154218 -0.334775 0.045489 -0.097382 0.010630 -0.205660 -0.228008 -0.160329 -0.292134 -0.292434 -0.203039 -0.094522 -0.031863 -0.000453 -0.011101 -0.004583 0.000000 0.000000 0.000000 0.000000 0.000000 0.000000 0.000000 0.018269 0.111659 0.127380 0.091505 0.022033 -0.284462 -0.227089 0.083850 -0.142545 -0.146097 -0.037592 -0.187215 -0.126352 -0.140522 -0.065033 -0.029674 -0.012014 0.000000 0.000000 0.000000 0.000000 0.000000 0.000000 0.000000 0.000000 0.000000 0.000000 0.000000 -0.009663 -0.079993 -0.080870 -0.069805 -0.051154 -0.235803 -0.302248 -0.313450 -0.181855 -0.166837 -0.158777 -0.095319 -0.073938 -0.011897 -0.001217 -0.000213 0.000000 0.000000 0.000000 0.000000 0.000000 0.000000 0.000000 0.000000 0.000000 0.000000 0.000000 0.000000 0.000000 0.000000 0.000000 0.000000 0.000000 0.000000 0.000000 0.000000 0.000000 0.000000 0.000000 0.000000 0.000000 0.000000 0.000000 0.000000 0.000000 0.000000 0.000000 0.000000 0.000000 0.000000 0.000000 0.000000 0.000000 0.000000 0.000000 0.000000 0.000000 0.000000 0.000000 0.000000 0.000000 0.000000 0.000000 0.000000 0.000000 0.000000 0.000000 0.000000 0.000000 0.000000 0.000000 0.000000 0.000000 0.000000 0.000000 0.000000 0.000000 0.000000 144.148439 
0.000000 0.000000 0.000000 0.000000 0.000000 0.000000 0.000000 0.000000 0.000000 0.000000 0.000000 0.000000 0.000000 0.000000 0.000000 0.000000 0.000000 0.000000 0.000000 0.000000 0.000000 0.000000 0.000000 0.000000 0.000000 0.000000 0.000000 0.000000 0.000000 0.000000 0.000000 0.000000 0.000000 0.000000 0.000000 0.000000 0.000000 0.000000 0.000000 0.000000 0.000000 0.000000 0.000000 0.000000 0.000000 0.000000 0.000000 0.000000 0.000000 0.000000 0.000000 0.000000 0.000000 0.000000 0.000000 0.000000 0.000000 0.000000 0.000000 0.000000 0.000000 0.000000 0.000000 0.000000 0.000000 0.000000 0.000000 0.000000 0.000000 0.000000 0.000000 0.000000 0.000000 0.000000 0.000000 0.000000 0.000000 0.000000 0.000000 0.000000 0.000000 0.000000 0.000000 0.000000 0.000000 0.000000 0.000000 0.000000 0.000000 0.000000 0.000000 0.000000 0.000000 0.000000 0.000000 0.000000 0.000000 0.004523 0.043396 0.052564 0.052305 0.037190 0.029770 0.012307 0.005437 0.000000 0.000000 0.000000 0.000000 0.000000 0.000000 0.000000 0.000000 0.000000 0.000000 0.000000 0.000000 0.000000 0.000000 0.000000 0.000000 0.000000 0.000000 -0.032041 -0.214846 -0.126316 0.273431 0.390305 0.637809 0.716289 0.283212 0.148705 0.244407 0.296244 0.124555 0.029708 0.025983 0.005996 0.000000 0.000000 0.000000 0.000000 0.000000 0.000000 0.000000 0.000000 0.000000 0.000000 0.000000 0.000000 -0.039608 -0.180024 -0.079697 0.122997 0.477567 0.603647 0.782943 0.785630 0.987021 0.980933 0.661482 0.441480 0.335515 0.110486 0.050348 0.025983 0.000000 0.000000 0.000000 0.000000 0.000000 0.000000 0.000000 0.000000 0.000000 0.000500 0.018416 -0.068011 -0.577292 -0.547272 -0.282976 0.228492 0.372659 0.140864 0.094770 0.184931 0.365147 0.317309 0.179988 0.390435 0.435530 0.215642 0.080934 0.016660 -0.000192 0.000000 0.000000 0.000000 0.000000 0.000000 0.000000 0.000000 -0.006736 0.003121 0.019365 -0.610057 -0.692484 -0.515339 0.187112 0.256177 -0.230718 -0.884137 -0.487160 -0.488681 -0.038073 -0.146897 -0.342816 0.108922 0.327066 0.346735 0.053672 -0.000193 0.008249 0.000000 0.000000 0.000000 0.000000 0.000000 0.000000 -0.010477 -0.056570 -0.010335 -0.178004 -0.691295 -0.555787 -0.139979 -0.057834 0.157422 -0.392697 -0.206301 -0.195808 0.139378 -0.078811 -0.263949 -0.172367 -0.000618 -0.056916 0.145946 0.030911 -0.008462 -0.001939 0.000000 0.000000 0.000000 0.000000 0.003773 0.000838 -0.032226 -0.068827 -0.083174 -0.290899 -0.620403 -0.335282 -0.040997 0.141187 0.358538 0.060273 -0.120636 0.233287 0.904299 0.614111 0.040719 0.217322 -0.024669 0.003560 0.064090 0.161262 0.053483 0.002479 0.000000 0.000000 0.000000 0.000000 0.019422 -0.006403 -0.061479 -0.113532 -0.293633 -0.459080 -0.506826 -0.261142 -0.157806 -0.067662 0.533459 0.368770 0.152891 0.466046 0.488959 0.411494 0.475502 0.194894 0.111044 -0.103309 0.006648 0.157917 0.151860 0.004425 0.000000 0.000000 0.000000 0.000000 0.000000 -0.033462 -0.156111 -0.197667 -0.188135 -0.316883 -0.480296 -0.220611 -0.297889 0.158020 0.537914 0.121498 -0.050493 -0.404421 -0.184507 0.000534 0.055976 -0.343972 -0.321996 0.022380 0.108652 0.237431 0.165962 0.004514 0.000000 0.000000 0.000000 0.000000 0.000000 -0.072336 -0.189252 -0.067178 -0.187837 -0.098936 -0.494803 -0.518655 -0.181760 0.121301 0.108100 -0.237867 -0.706022 -0.994115 -0.700387 -0.468162 -0.453919 -0.814555 -0.395597 0.281432 0.243583 0.380273 0.187291 0.002462 0.000000 0.000000 0.000000 0.000000 0.000000 -0.038847 -0.213504 -0.029821 -0.106477 -0.141203 0.074867 -0.042688 0.282398 0.095917 0.039233 -0.502443 -1.007715 -1.154477 -1.103492 -1.112578 -0.836330 -0.725112 -0.469804 0.415353 0.463692 0.471953 0.171503 0.000167 0.000000 0.000000 0.000000 0.000000 0.000000 -0.020125 -0.150720 0.005147 -0.110595 -0.042881 0.172668 0.319384 0.492559 0.073434 -0.249072 -0.761906 -1.351524 -1.453655 -1.351387 -1.097831 -0.340887 -0.227022 -0.437957 0.219922 0.584058 0.435916 0.252477 0.000000 0.000000 0.000000 0.000000 0.000000 0.000000 -0.019126 -0.158205 0.083991 0.072201 0.413460 0.366853 0.247023 0.321874 -0.062305 -0.612961 -1.193213 -1.309184 -1.323242 -1.408644 -0.902355 0.075647 0.018290 -0.326829 0.338684 0.566614 0.515223 0.260652 0.000000 0.000000 0.000000 0.000000 0.007780 0.000000 -0.014970 -0.059464 0.120491 0.298419 0.462433 0.794411 0.377087 0.351074 -0.072195 -0.641193 -1.065475 -1.392639 -1.444683 -1.118498 -0.605106 0.189817 -0.202882 -0.284757 0.361023 0.582808 0.468736 0.236041 0.000000 0.000000 0.000000 0.000000 0.000000 0.000000 -0.045497 0.034484 0.324778 0.461703 0.632568 1.191923 0.576985 0.342702 0.073346 -0.124245 -0.655670 -0.787433 -0.893334 -0.789259 -0.327413 0.088811 -0.441205 -0.017226 0.514162 0.642136 0.366448 0.156357 0.000000 0.000000 0.000000 0.000000 0.000000 0.000000 -0.079216 0.097627 0.452187 0.468822 0.590494 1.042472 0.968139 0.796549 0.429124 0.170160 -0.341006 -0.606780 -0.448332 -0.527686 -0.155188 0.057740 -0.012843 0.314228 0.443218 0.566045 0.271501 0.032357 0.000000 0.000000 0.000000 0.000000 0.000000 0.000000 -0.078575 0.082756 0.398387 0.454030 0.354627 0.616291 0.520635 0.754804 0.603785 0.294619 -0.280856 -0.344591 0.007522 -0.069608 0.213125 0.256904 0.211312 0.278664 0.395480 0.436476 -0.028084 -0.074513 0.000000 0.000000 0.000000 0.000000 0.000000 0.000000 -0.060324 0.064338 0.123143 0.319335 0.570088 0.577696 0.741834 1.243975 1.340700 0.757946 0.234838 0.184434 0.223375 0.236252 -0.008556 -0.139252 0.081815 0.157371 0.254723 0.216046 -0.119596 -0.100971 0.000000 0.000000 0.000000 0.000000 0.000000 0.000000 -0.006433 -0.083204 -0.044512 0.160865 0.573012 0.761736 1.023041 1.611664 1.845466 1.247536 0.575452 0.231221 -0.039860 -0.146798 -0.157786 -0.110395 -0.054589 -0.002765 0.095977 -0.011747 -0.132890 -0.085516 0.000000 0.092306 0.000000 0.000000 0.000000 0.000000 -0.007629 -0.181285 -0.163358 0.056463 0.276454 0.392847 0.700107 0.926805 1.251564 0.842771 0.638635 0.545013 0.204462 0.264195 -0.059257 -0.246805 -0.084623 -0.139405 -0.112564 -0.042740 -0.134231 -0.082425 0.000000 0.009516 0.000000 0.000000 0.000000 0.000000 0.000000 -0.086883 -0.192676 -0.084913 0.070682 0.209850 0.424537 0.580733 0.622212 0.411614 0.473780 0.646485 0.371559 0.057016 -0.091441 -0.112479 -0.313778 -0.344647 -0.110977 -0.044131 -0.054209 -0.012624 0.000000 0.000000 0.000000 0.000000 0.000000 0.000000 0.000000 -0.021250 -0.070875 -0.142455 -0.086167 -0.064105 -0.180337 -0.422737 -0.572042 0.011279 0.221820 0.102805 -0.377619 -0.544771 -0.518080 -0.389362 -0.436769 -0.255154 -0.103767 -0.039409 -0.032545 -0.003870 0.000000 0.000000 0.000000 0.000000 0.000000 0.000000 0.000000 0.000000 -0.018051 -0.065522 -0.126244 -0.103259 -0.145933 -0.407753 -0.624909 -0.561937 -0.402750 -0.454800 -0.427249 -0.178591 -0.194358 -0.251607 -0.268211 -0.183711 -0.064964 -0.003259 0.000000 0.000000 0.000000 0.000000 0.000000 0.000000 0.000000 0.000000 0.000000 0.000000 -0.004735 -0.004735 -0.008468 -0.015612 -0.014120 -0.021580 -0.015376 -0.031591 -0.014031 -0.001199 -0.018442 -0.054525 -0.043134 -0.043281 0.000000 0.000000 -0.001749 0.000000 0.000000 0.000000 0.000000 0.000000 0.000000 0.000000 0.000000 0.000000 0.000000 0.000000 0.000000 0.000000 0.000000 0.000000 0.000000 0.000000 0.000000 0.000000 0.000000 0.000000 0.000000 0.000000 0.000000 0.000000 0.000000 0.000000 0.000000 0.000000 0.000000 0.000000 0.000000 0.000000 -2447.405577 
0.000000 0.000000 0.000000 0.000000 0.000000 0.000000 0.000000 0.000000 0.000000 0.000000 0.000000 0.000000 0.000000 0.000000 0.000000 0.000000 0.000000 0.000000 0.000000 0.000000 0.000000 0.000000 0.000000 0.000000 0.000000 0.000000 0.000000 0.000000 0.000000 0.000000 0.000000 0.000000 0.000000 0.000000 0.000000 0.000000 0.000000 0.000000 0.000000 0.000000 0.000000 0.000000 0.000000 0.000000 0.000000 0.000000 0.000000 0.000000 0.000000 0.000000 0.000000 0.000000 0.000000 0.000000 0.000000 0.000000 0.000000 0.000000 0.000000 0.000000 0.000000 0.000000 0.000000 0.000000 0.000000 0.000000 0.000000 0.000000 0.000000 0.025604 0.030286 0.003219 0.000000 0.000000 0.000000 0.000000 0.000000 0.000000 0.000000 0.000000 0.000000 0.000000 0.000000 0.000000 0.000000 0.000000 0.000000 0.000000 0.000000 0.000000 0.000000 0.000000 0.000000 0.000000 0.000000 0.000000 0.000000 0.078057 0.079047 0.029436 0.029765 0.036281 0.012292 0.000000 0.000000 0.000000 0.000000 0.000000 0.000000 0.000000 0.000000 0.000000 0.000000 0.000000 0.000000 0.000000 0.000000 0.000000 0.000000 0.011429 0.000000 0.000000 -0.002969 -0.008103 -0.031168 0.003702 0.044415 0.049883 -0.067226 -0.072885 -0.024492 0.185750 0.193763 0.123818 0.082102 0.027368 -0.009411 0.000000 0.000000 0.000000 0.000000 0.000000 0.000000 0.000000 0.000000 0.000000 0.000000 0.021609 0.005000 -0.001166 -0.025328 -0.076376 -0.130508 -0.060025 0.011032 -0.111644 -0.187955 -0.073049 0.105627 -0.021222 0.096978 0.082299 0.143617 0.014156 0.043180 0.025273 0.000000 0.000000 0.000000 0.000000 0.000000 0.000000 0.000000 0.000000 0.000000 0.005932 0.009793 -0.009715 -0.044544 -0.187894 -0.146449 -0.034186 -0.100968 -0.183971 -0.023974 -0.212648 -0.351642 -0.217537 -0.017451 0.047536 0.054054 -0.163378 -0.100312 0.013646 -0.000181 0.000000 0.000000 0.000000 0.000000 0.000000 0.000000 0.000000 0.003941 0.010199 0.011389 -0.041212 -0.143007 -0.283340 -0.193496 -0.159482 -0.134863 0.015647 0.001445 -0.225263 -0.377014 -0.398146 -0.235618 -0.124711 -0.009990 -0.239217 -0.216427 -0.126466 -0.017381 0.000000 0.000000 0.000000 0.000000 0.000000 0.000000 0.000000 0.004388 0.025384 0.009802 -0.098875 -0.238543 -0.318541 -0.213076 -0.182534 -0.020675 0.066061 0.124810 -0.143296 -0.093350 -0.400629 -0.275523 -0.156393 -0.221482 -0.310942 -0.228679 -0.077739 -0.032590 0.000000 0.000000 0.000000 0.000000 0.000000 0.000000 0.000000 0.000935 0.030840 -0.047749 -0.162485 -0.312404 -0.273366 -0.273564 -0.255503 -0.097615 0.105536 0.272073 0.112303 0.025275 -0.481879 -0.359902 -0.253264 -0.380095 -0.260433 -0.213613 -0.048879 -0.023175 0.000000 0.000000 0.000000 0.000000 0.000000 0.000000 0.000000 0.000000 0.010823 -0.105838 -0.238505 -0.317801 -0.302027 -0.379943 -0.284451 -0.133164 0.226456 0.443476 0.419415 0.137544 -0.489334 -0.431312 -0.415964 -0.429390 -0.353959 -0.222130 -0.038968 -0.012131 0.000000 0.000000 0.000000 0.000000 0.000000 0.000000 0.000000 -0.000311 -0.073454 -0.155183 -0.260557 -0.364037 -0.363084 -0.446294 -0.366087 -0.065161 0.497058 0.690931 0.581341 0.083460 -0.454394 -0.608994 -0.569150 -0.481318 -0.498616 -0.235980 -0.039018 0.000000 0.000000 0.000000 0.000000 0.000000 0.000000 0.000000 0.000000 -0.007166 -0.089630 -0.154083 -0.378574 -0.416523 -0.389289 -0.326121 -0.365359 0.104346 0.669106 0.978280 0.499429 0.032339 -0.539920 -0.642396 -0.596435 -0.545310 -0.486251 -0.239053 -0.042172 0.000000 0.000000 0.000000 0.000000 0.000000 0.000000 0.000000 0.000000 -0.020949 -0.085308 -0.271086 -0.457841 -0.377905 -0.380186 -0.230572 -0.413471 0.371680 1.023452 0.989356 0.460694 -0.074524 -0.605557 -0.562841 -0.447793 -0.562294 -0.399054 -0.229681 -0.027123 0.000000 0.000000 0.000000 0.000000 0.000000 0.000000 0.000000 0.000000 -0.078749 -0.228058 -0.397374 -0.478769 -0.362191 -0.320664 -0.306209 -0.234142 0.727852 1.209218 1.092294 0.389826 -0.391789 -0.501939 -0.562616 -0.493480 -0.548031 -0.331830 -0.202201 -0.090003 0.000000 0.000000 0.000000 0.000000 0.000000 0.000000 0.000000 0.000000 -0.193099 -0.315343 -0.349958 -0.413945 -0.379373 -0.434845 -0.394499 0.034583 0.896083 1.157386 0.929605 0.078589 -0.483445 -0.363981 -0.517610 -0.556748 -0.503032 -0.252130 -0.160709 -0.134933 0.000000 0.000000 0.000000 0.000000 0.000000 0.000000 0.000000 -0.009431 -0.268660 -0.347583 -0.356014 -0.527343 -0.469794 -0.433094 -0.159927 0.328823 0.737514 0.920197 0.521304 -0.185810 -0.355650 -0.372008 -0.499511 -0.472930 -0.372033 -0.154521 -0.093426 -0.055285 0.021271 0.000000 0.000000 0.000000 0.000000 0.000000 0.000000 -0.052138 -0.291997 -0.309368 -0.359615 -0.616344 -0.447355 -0.332834 0.131909 0.419917 0.597808 0.620178 0.274190 -0.285822 -0.440930 -0.458172 -0.445202 -0.372882 -0.239702 -0.130223 -0.089703 -0.001324 0.083632 0.000000 0.000000 0.000000 0.000000 0.000000 0.000000 -0.081188 -0.256373 -0.286628 -0.392411 -0.590706 -0.344526 -0.134347 0.076221 0.468380 0.414429 0.371788 0.070025 -0.323644 -0.400965 -0.444626 -0.406479 -0.281005 -0.218604 -0.132672 -0.092368 0.080889 0.080515 0.000000 0.000000 0.000000 0.000000 0.000000 0.000000 -0.068090 -0.229240 -0.329706 -0.414332 -0.458781 -0.475538 -0.195285 0.209542 0.294237 0.254724 0.148178 -0.063401 -0.187010 -0.336795 -0.399435 -0.366716 -0.269527 -0.181890 -0.134089 -0.039225 0.070976 0.070976 0.000000 0.000000 0.000000 0.000000 0.000000 0.000000 -0.080477 -0.157772 -0.299497 -0.270919 -0.325971 -0.474536 -0.151764 0.248101 0.131976 0.070635 -0.024800 -0.167852 -0.144940 -0.311381 -0.280858 -0.264765 -0.190650 -0.127482 -0.066148 0.023472 0.070976 0.046945 0.000000 0.000000 0.000000 0.000000 0.000000 0.000000 -0.058444 -0.172299 -0.146951 -0.024024 -0.202179 -0.423902 -0.422758 -0.192821 -0.084585 -0.198831 -0.144161 -0.066812 -0.089785 -0.289532 -0.065573 -0.073722 -0.059546 -0.016833 -0.007565 0.023472 0.061754 0.010060 0.000000 0.000000 0.000000 0.000000 0.000000 0.000000 -0.029996 -0.053065 -0.010979 0.053533 0.007930 -0.246797 -0.320158 -0.361590 -0.289720 -0.278395 -0.136069 -0.020995 -0.155402 -0.122977 -0.003802 0.027580 0.044602 0.031393 0.000000 0.003353 0.005868 0.000000 0.000000 0.000000 0.000000 0.000000 0.000000 0.000000 0.000000 0.022313 0.034047 0.095513 0.234081 0.207666 -0.094715 -0.369681 -0.409377 -0.303904 -0.110694 -0.044982 -0.042232 -0.008627 0.003847 0.021058 0.019823 0.023306 0.000000 0.000000 0.000000 0.000000 0.000000 0.000000 0.000000 0.000000 0.000000 0.000000 0.000000 0.003736 0.002619 0.045452 0.101740 0.062811 -0.065265 -0.157435 -0.246179 -0.166801 -0.051420 -0.011010 -0.014602 0.011038 -0.001150 0.000000 0.000000 0.000000 0.000000 0.000000 0.000000 0.000000 0.000000 0.000000 0.000000 0.000000 0.000000 0.000000 0.000000 0.000000 0.000000 0.000000 0.000000 0.000000 0.000000 0.000000 0.000000 0.000000 0.000000 0.000000 0.000000 0.000000 0.000000 0.000000 0.000000 0.000000 0.000000 0.000000 0.000000 0.000000 0.000000 0.000000 0.000000 0.000000 0.000000 0.000000 0.000000 0.000000 0.000000 0.000000 0.000000 0.000000 0.000000 0.000000 0.000000 0.000000 0.000000 0.000000 0.000000 0.000000 0.000000 0.000000 0.000000 0.000000 0.000000 0.000000 0.000000 0.000000 0.000000 0.000000 0.000000 0.000000 0.000000 0.000000 0.000000 0.000000 0.000000 0.000000 0.000000 0.000000 0.000000 0.000000 0.000000 0.000000 0.000000 0.000000 0.000000 0.000000 0.000000 0.000000 0.000000 0.000000 0.000000 0.000000 0.000000 0.000000 0.000000 1491.353035 
0.000000 0.000000 0.000000 0.000000 0.000000 0.000000 0.000000 0.000000 0.000000 0.000000 0.000000 0.000000 0.000000 0.000000 0.000000 0.000000 0.000000 0.000000 0.000000 0.000000 0.000000 0.000000 0.000000 0.000000 0.000000 0.000000 0.000000 0.000000 0.000000 0.000000 0.000000 0.000000 0.000000 0.000000 0.000000 0.000000 0.000000 0.000000 0.000000 0.000000 0.000000 0.000000 0.000000 0.000000 0.000000 0.000000 0.000000 0.000000 0.000000 0.000000 0.000000 0.000000 0.000000 0.000000 0.000000 0.000000 0.000000 0.000000 0.000000 0.000000 0.000000 0.000000 0.000000 0.000000 0.000000 0.000000 0.000000 0.000000 0.000000 0.000000 0.000000 0.000000 0.000000 0.000000 0.000000 0.000000 0.000000 0.000000 0.000000 0.000000 0.000000 0.000000 0.000000 0.000000 0.000000 0.000000 0.000000 0.000000 0.000000 0.000000 0.000000 0.000000 0.000000 0.000000 0.000000 0.000000 0.000000 0.000000 0.000000 0.000000 0.000000 0.000000 0.000000 0.000000 0.000000 0.000000 0.000000 0.000000 0.000000 0.000000 0.000000 0.000000 0.000000 0.000000 0.000000 0.000000 0.000000 0.000000 0.000000 0.000000 0.000000 0.000000 0.000000 0.000000 0.000000 0.000000 0.000000 0.000000 0.000000 0.000000 0.000000 0.000000 0.000000 0.000000 0.000000 0.000000 0.000000 0.000000 0.000000 0.000000 0.000000 0.000000 0.000000 0.000000 0.000000 0.000000 0.000000 0.000000 0.000000 0.000000 0.000000 0.000000 0.000000 0.000000 0.000000 0.000000 0.000000 0.000000 0.000000 0.000000 0.000000 0.000000 0.000000 0.000000 0.000000 0.000000 0.000000 0.000000 0.000000 0.000000 0.000000 0.000000 0.000000 0.000000 0.000000 0.000000 0.000000 0.000000 0.000000 0.000000 0.000000 0.000000 0.000000 0.000000 0.000000 0.000000 0.000000 0.000000 0.000000 0.000000 0.000000 0.000000 0.000000 0.000000 0.000000 0.000000 0.000000 0.000000 0.000000 0.000000 0.000000 0.000000 0.000000 0.000000 0.000000 0.000000 0.000000 0.000000 0.000000 0.000000 0.000000 0.000000 0.000000 0.000000 0.000000 0.000000 0.000000 0.000000 0.000000 0.000000 0.000000 0.000000 0.000000 0.000000 0.000000 0.000000 0.000000 0.000000 0.000000 0.000000 0.000000 0.000000 0.000000 0.000000 0.000000 0.000000 0.000000 0.000000 0.000000 0.000000 0.000000 0.000000 0.000000 0.000000 0.000000 0.000000 0.000000 0.000000 0.000000 0.000000 0.000000 0.000000 0.000000 0.000000 0.000000 0.000000 0.000000 0.000000 0.000000 0.000000 0.000000 0.000000 0.000000 0.000000 0.000000 0.000000 0.000000 0.000000 0.000000 0.000000 0.000000 0.000000 0.000000 0.000000 0.000000 0.000000 0.000000 0.000000 0.000000 0.000000 0.000000 0.000000 0.000000 0.000000 0.000000 0.000000 0.000000 0.000000 0.000000 0.000000 0.000000 0.000000 0.000000 0.000000 0.000000 0.000000 0.000000 0.000000 0.000000 0.000000 0.000000 0.000000 0.000000 0.000000 0.000000 0.000000 0.000000 0.000000 0.000000 0.000000 0.000000 0.000000 0.000000 0.000000 0.000000 0.000000 0.000000 0.000000 0.000000 0.000000 0.000000 0.000000 0.000000 0.000000 0.000000 0.000000 0.000000 0.000000 0.000000 0.000000 0.000000 0.000000 0.000000 0.000000 0.000000 0.000000 0.000000 0.000000 0.000000 0.000000 0.000000 0.000000 0.000000 0.000000 0.000000 0.000000 0.000000 0.000000 0.000000 0.000000 0.000000 0.000000 0.000000 0.000000 0.000000 0.000000 0.000000 0.000000 0.000000 0.000000 0.000000 0.000000 0.000000 0.000000 0.000000 0.000000 0.000000 0.000000 0.000000 0.000000 0.000000 0.000000 0.000000 0.000000 0.000000 0.000000 0.000000 0.000000 0.000000 0.000000 0.000000 0.000000 0.000000 0.000000 0.000000 0.000000 0.000000 0.000000 0.000000 0.000000 0.000000 0.000000 0.000000 0.000000 0.000000 0.000000 0.000000 0.000000 0.000000 0.000000 0.000000 0.000000 0.000000 0.000000 0.000000 0.000000 0.000000 0.000000 0.000000 0.000000 0.000000 0.000000 0.000000 0.000000 0.000000 0.000000 0.000000 0.000000 0.000000 0.000000 0.000000 0.000000 0.000000 0.000000 0.000000 0.000000 0.000000 0.000000 0.000000 0.000000 0.000000 0.000000 0.000000 0.000000 0.000000 0.000000 0.000000 0.000000 0.000000 0.000000 0.000000 0.000000 0.000000 0.000000 0.000000 0.000000 0.000000 0.000000 0.000000 0.000000 0.000000 0.000000 0.000000 0.000000 0.000000 0.000000 0.000000 0.000000 0.000000 0.000000 0.000000 0.000000 0.000000 0.000000 0.000000 0.000000 0.000000 0.000000 0.000000 0.000000 0.000000 0.000000 0.000000 0.000000 0.000000 0.000000 0.000000 0.000000 0.000000 0.000000 0.000000 0.000000 0.000000 0.000000 0.000000 0.000000 0.000000 0.000000 0.000000 0.000000 0.000000 0.000000 0.000000 0.000000 0.000000 0.000000 0.000000 0.000000 0.000000 0.000000 0.000000 0.000000 0.000000 0.000000 0.000000 0.000000 0.000000 0.000000 0.000000 0.000000 0.000000 0.000000 0.000000 0.000000 0.000000 0.000000 0.000000 0.000000 0.000000 0.000000 0.000000 0.000000 0.000000 0.000000 0.000000 0.000000 0.000000 0.000000 0.000000 0.000000 0.000000 0.000000 0.000000 0.000000 0.000000 0.000000 0.000000 0.000000 0.000000 0.000000 0.000000 0.000000 0.000000 0.000000 0.000000 0.000000 0.000000 0.000000 0.000000 0.000000 0.000000 0.000000 0.000000 0.000000 0.000000 0.000000 0.000000 0.000000 0.000000 0.000000 0.000000 0.000000 0.000000 0.000000 0.000000 0.000000 0.000000 0.000000 0.000000 0.000000 0.000000 0.000000 0.000000 0.000000 0.000000 0.000000 0.000000 0.000000 0.000000 0.000000 0.000000 0.000000 0.000000 0.000000 0.000000 0.000000 0.000000 0.000000 0.000000 0.000000 0.000000 0.000000 0.000000 0.000000 0.000000 0.000000 0.000000 0.000000 0.000000 0.000000 0.000000 0.000000 0.000000 0.000000 0.000000 0.000000 0.000000 0.000000 0.000000 0.000000 0.000000 0.000000 0.000000 0.000000 0.000000 0.000000 0.000000 0.000000 0.000000 0.000000 0.000000 0.000000 0.000000 0.000000 0.000000 0.000000 0.000000 0.000000 0.000000 0.000000 0.000000 0.000000 0.000000 0.000000 0.000000 0.000000 0.000000 0.000000 0.000000 0.000000 0.000000 0.000000 0.000000 0.000000 0.000000 0.000000 0.000000 0.000000 0.000000 0.000000 0.000000 0.000000 0.000000 0.000000 0.000000 0.000000 0.000000 0.000000 0.000000 0.000000 0.000000 0.000000 0.000000 0.000000 0.000000 0.000000 0.000000 0.000000 0.000000 0.000000 0.000000 0.000000 0.000000 0.000000 0.000000 0.000000 0.000000 0.000000 0.000000 0.000000 0.000000 0.000000 0.000000 0.000000 0.000000 0.000000 0.000000 0.000000 0.000000 0.000000 0.000000 0.000000 0.000000 0.000000 0.000000 0.000000 0.000000 0.000000 0.000000 0.000000 0.000000 0.000000 0.000000 0.000000 0.000000 0.000000 0.000000 0.000000 0.000000 0.000000 0.000000 0.000000 0.000000 0.000000 0.000000 0.000000 0.000000 0.000000 0.000000 0.000000 0.000000 0.000000 0.000000 0.000000 0.000000 0.000000 0.000000 0.000000 0.000000 0.000000 0.000000 0.000000 0.000000 0.000000 0.000000 0.000000 0.000000 0.000000 0.000000 0.000000 0.000000 0.000000 0.000000 0.000000 0.000000 0.000000 0.000000 0.000000 0.000000 0.000000 0.000000 0.000000 0.000000 0.000000 0.000000 0.000000 0.000000 0.000000 0.000000 0.000000 0.000000 0.000000 0.000000 0.000000 0.000000 0.000000 0.000000 0.000000 0.000000 0.000000 0.000000 0.000000 0.000000 0.000000 0.000000 0.000000 0.000000 0.000000 0.000000 0.000000 0.000000 0.000000 0.000000 0.000000 0.000000 
0.000000 0.000000 0.000000 0.000000 0.000000 0.000000 0.000000 0.000000 0.000000 0.000000 0.000000 0.000000 0.000000 0.000000 0.000000 0.000000 0.000000 0.000000 0.000000 0.000000 0.000000 0.000000 0.000000 0.000000 0.000000 0.000000 0.000000 0.000000 0.000000 0.000000 0.000000 0.000000 0.000000 0.000000 0.000000 0.000000 -0.000020 -0.000953 -0.000737 -0.000359 0.000000 0.000000 0.000000 0.000000 0.000000 0.000000 0.000000 0.000000 0.000000 0.000000 0.000000 0.000000 0.000000 0.000000 0.000000 0.000000 0.000000 0.000000 0.000000 0.000000 0.000000 0.000000 0.000000 0.000000 -0.000379 -0.019987 -0.041317 -0.011014 -0.034140 0.083074 0.149118 0.067349 0.353260 0.088397 -0.007280 0.018034 0.038997 0.009248 0.000000 0.000000 0.000000 0.000000 0.000000 0.000000 0.000000 0.000000 0.000000 0.000000 0.000000 0.000000 0.000000 0.000000 0.000000 -0.021140 0.022607 -0.296396 -0.661859 -0.910804 -1.410388 -0.878382 -0.676328 -0.566826 -0.423799 -0.056697 -0.127922 -0.140866 0.000000 0.000000 0.000000 0.000000 0.000000 0.000000 0.000000 0.000000 0.000000 0.000000 0.000000 0.000000 0.029771 -0.065476 -0.252160 -0.265311 -0.310667 -0.750699 -0.925639 -1.313406 -1.161803 -0.973348 -0.931149 -0.681357 -0.952603 -0.152933 1.010363 0.795312 0.775162 0.347569 0.037051 0.000000 0.000000 0.000000 0.000000 0.000000 0.000000 0.000000 0.000087 0.000028 -0.005502 -0.057073 -0.480601 -0.956843 -0.973289 -1.043480 -1.559163 -1.104246 -0.316026 -0.072813 -0.778391 -0.502070 -0.492438 0.121563 1.099088 1.185954 1.104434 0.824721 0.097088 0.003231 0.000000 0.000000 0.000000 0.000000 0.000000 0.000000 0.000256 -0.000222 -0.219946 -0.337802 -1.203713 -1.329561 -1.151437 -1.472462 -1.431211 -0.939909 -0.373921 -0.409242 -0.457642 -0.180349 -0.343821 0.092888 0.846973 1.285821 0.929121 0.706547 0.127561 0.042006 0.000000 0.000000 0.000000 0.000000 0.000000 0.000000 0.000000 -0.001877 -0.213505 -0.331305 -0.996811 -1.274160 -0.937431 -1.170034 -0.953803 -0.570831 -0.268130 -0.321256 -0.435556 0.014316 -0.755928 -0.389333 0.618809 1.022619 0.551636 0.268620 0.076451 0.079124 0.000000 0.000000 0.000000 0.000000 0.000000 0.000000 0.000000 -0.046924 -0.144039 -0.221676 -0.519123 -0.715506 -0.743361 -0.586151 -0.643726 -0.163777 0.618195 0.269059 -0.003080 0.351851 -0.242731 -0.153939 0.207741 0.098320 -0.072029 -0.058066 0.027943 0.077849 0.000000 0.000000 0.000000 0.000000 0.000000 0.000000 -0.011164 -0.092993 -0.130765 -0.169835 -0.240109 -0.415140 -0.469455 -0.091140 0.296639 0.531954 1.038393 0.598712 0.610312 0.867363 -0.051102 -0.025849 -0.155970 -0.302561 -0.097835 -0.093704 -0.114831 0.067036 -0.021219 -0.032442 0.000000 0.000000 0.000000 0.000000 -0.060925 -0.085720 -0.189259 -0.030809 -0.410625 -0.526475 -0.589725 -0.100091 0.157343 0.526626 0.962965 1.372249 0.862951 0.826995 0.091296 0.239030 -0.146412 -0.305494 -0.056220 -0.117723 -0.117784 -0.071249 -0.062650 -0.072194 0.000000 0.000000 0.000000 0.000000 -0.008613 -0.095497 -0.113008 0.010400 -0.275820 -0.388168 -0.360153 -0.035178 0.407377 1.005859 1.872258 2.396411 1.763071 0.519486 0.111076 -0.241465 -0.497342 -0.205031 -0.142950 -0.293102 -0.184717 -0.233497 -0.269029 -0.057573 0.000000 0.000000 0.000000 0.000000 0.000000 -0.074181 -0.091040 -0.051156 -0.132553 -0.160431 0.044170 0.463675 0.407741 1.043357 2.195689 2.967547 1.713941 -0.106855 0.389940 -0.668398 -0.396667 -0.154322 -0.324237 -0.393546 -0.239434 -0.383681 -0.291320 -0.052209 0.000000 0.000000 0.000000 0.000000 0.000000 0.000000 -0.041249 -0.087984 -0.281888 -0.072136 0.099585 -0.541026 0.010347 0.811328 2.176509 2.719883 1.342444 0.380545 0.085971 -0.725703 -0.421860 -0.495145 -0.501063 -0.439023 -0.557872 -0.568390 -0.287999 -0.099948 0.000000 0.000000 0.000000 0.000000 0.000000 -0.000227 -0.035845 -0.106431 -0.391557 -0.053593 -0.226380 -0.631692 -0.222837 0.356796 2.004664 1.643651 1.484345 0.532741 -0.493442 -1.202848 -1.099822 -0.936772 -0.853954 -0.773620 -0.675902 -0.432292 -0.254362 -0.098721 0.000000 0.000000 0.000000 0.000000 0.002726 0.004970 -0.078895 -0.302835 -0.591762 -0.448188 -0.860285 -0.778762 -0.428680 -0.089921 0.358179 0.481858 0.909569 0.069925 -0.743034 -1.477853 -1.475404 -1.089539 -0.891017 -0.601480 -0.294840 -0.201985 -0.101459 -0.107696 -0.059017 0.000000 0.000000 0.000000 0.000000 -0.071233 -0.274668 -0.717895 -1.088328 -1.305910 -1.609879 -1.228431 -0.999726 -1.352426 -0.754963 -0.192388 0.224568 -0.228081 -1.020627 -1.005205 -0.970843 -1.140309 -1.009416 -0.854383 -0.714307 -0.540803 -0.531109 -0.259943 -0.158937 0.000000 0.000000 0.000000 0.000000 -0.129233 -0.450500 -0.798993 -0.976766 -1.515417 -1.692252 -1.078312 -1.197152 -1.681150 -0.718110 0.342209 0.042587 0.138492 -0.583683 -0.746154 -1.150047 -1.572454 -1.322208 -1.080180 -0.909824 -0.628019 -0.277803 -0.019268 -0.001183 0.000000 0.000000 0.000000 0.000000 -0.265826 -0.583308 -0.702190 -0.800357 -1.409219 -1.373378 -0.917097 -1.216813 -1.470213 -1.256181 0.275425 0.095981 -0.106794 -0.420079 -0.805634 -0.829919 -0.752193 -1.074133 -0.943010 -0.795341 -0.533623 -0.279415 -0.121342 0.000000 0.000000 0.000000 0.000000 -0.046805 -0.360726 -0.566287 -0.463696 -0.285009 -0.871984 -0.856186 -1.343407 -1.544087 -1.483198 -1.320685 -0.034717 0.178485 0.144707 -0.422233 -0.678702 -0.947208 -0.760140 -0.829551 -0.264001 -0.249370 -0.098701 -0.029759 0.077000 0.000000 0.000000 0.000000 0.000000 -0.127775 -0.159188 -0.275728 -0.254379 -0.338444 -0.528339 -0.035446 0.258623 -0.260422 -0.722244 -1.146097 -0.409180 -0.071800 0.007372 -0.638454 -0.965023 -1.364935 -0.642982 -0.083096 0.133510 -0.143306 -0.106132 0.028993 0.072483 0.000000 0.000000 0.000000 0.000000 0.060662 0.049568 0.463048 0.424919 0.087286 0.116018 0.633550 0.675473 -0.582682 -0.462781 -0.158276 -0.269485 -0.521948 -0.448171 -0.556933 -0.585922 -0.654551 -0.347643 -0.061671 -0.346304 -0.082392 0.166113 0.221380 0.008184 0.000000 0.000000 0.000000 0.000000 0.119527 0.204171 0.651402 1.038428 0.548603 0.377172 0.944916 0.633444 -0.967154 -0.461122 -0.275902 -0.358759 -0.549786 -0.478314 -0.234447 -0.278176 -0.772374 -0.569530 -0.143972 -0.183444 -0.004692 0.096352 0.139760 0.000000 0.000000 0.000000 0.000000 0.000000 -0.000567 0.041074 0.208148 0.481758 0.638504 0.827498 1.051657 0.997347 0.191709 0.124656 -0.468934 -0.371594 0.125150 0.162927 -0.099679 -0.611623 -0.439161 -0.528213 -0.309720 -0.063467 -0.007785 -0.006723 -0.004954 0.000000 0.000000 0.000000 0.000000 0.000000 0.000000 0.021191 0.065683 0.063242 0.291736 0.293473 0.381437 0.003239 -0.374625 -0.563353 -0.745042 -0.532038 -0.356626 -0.362950 -0.522692 -0.439769 -0.622778 -0.610185 -0.427653 -0.026520 0.000000 0.000000 0.000000 0.000000 0.000000 0.000000 0.000000 0.000000 0.000000 0.000000 0.000000 0.000000 0.000000 0.000000 0.000000 -0.011164 -0.084016 -0.126520 -0.203974 -0.223575 -0.215406 -0.213557 -0.203299 -0.174857 -0.138083 -0.058741 -0.005507 0.000000 0.000000 0.000000 0.000000 0.000000 0.000000 0.000000 0.000000 0.000000 0.000000 0.000000 0.000000 0.000000 0.000000 0.000000 0.000000 0.000000 0.000000 0.000000 0.000000 0.000000 0.000000 0.000000 0.000000 0.000000 0.000000 0.000000 0.000000 0.000000 0.000000 0.000000 0.000000 0.000000 0.000000 0.000000 0.000000 0.000000 0.000000 0.000000 0.000000 0.000000 0.000000 0.000000 0.000000 0.000000 0.000000 0.000000 0.000000 0.000000 0.000000 0.000000 0.000000 0.000000 0.000000 0.000000 0.000000 0.000000 0.000000 0.000000 0.000000 0.000000 236.909091 
